500 300
</s> -0.12782 0.07034 -0.056246 -0.039529 0.070842 0.097519 0.078635 -0.033211 0.048386 0.07855 0.016857 0.13297 0.079058 0.08664 -0.15334 -0.032881 -0.00044065 -0.055221 0.041935 -0.044921 -0.0028944 0.028011 0.10207 0.1247 -0.026658 -0.058527 0.021138 0.12946 -0.095404 0.070783 -0.033623 0.044782 0.048433 0.093755 -0.009827 -0.085661 0.12389 -0.062371 0.047186 -0.13275 0.14816 0.060547 0.14191 -0.053763 -0.035119 0.0091136 0.065426 0.017797 -0.0928 -0.067962 0.03287 0.20967 -0.037968 0.011327 -0.048851 0.067998 -0.054849 0.013604 0.034671 0.076911 -0.094454 -0.078331 0.065191 0.1001 -0.12464 -0.046156 -0.020316 0.34989 0.029075 0.1365 -0.18955 -0.14721 -0.013051 0.0081533 0.067719 0.091815 -0.035535 0.16424 0.15611 -0.12941 -0.11093 0.038145 0.18235 -0.037573 0.018543 0.0038613 0.075092 -0.0062122 0.089 -0.033561 -0.019773 -0.043446 0.13524 -0.034894 -0.022472 -0.0092362 0.13269 0.040752 0.12155 0.044992 0.069523 0.031067 0.12412 -0.0046097 0.093907 -0.1295 -0.11403 0.020974 0.050892 0.10293 0.020868 -0.1291 0.013482 0.080527 0.13472 -0.15219 0.09313 -0.050235 -0.24926 0.10397 0.044278 0.18442 0.070251 -0.0041448 -0.22764 -0.046283 0.044605 0.090001 0.12274 0.11046 0.031117 -0.18511 -0.060947 -0.18237 -0.1024 -0.030033 -0.11066 0.0062325 -0.16155 -0.039244 -0.21788 0.10763 0.14892 -0.048097 0.19437 -0.073159 0.074542 -0.061541 -0.08675 -0.083894 -0.064798 0.037111 0.17607 0.24135 -0.10845 -0.10136 -0.29143 -0.020063 0.22613 0.053283 0.057046 -0.040536 -0.017756 0.09136 0.043617 0.10171 0.11483 -0.035792 -0.15432 -0.047688 0.025645 0.11818 0.13318 0.014496 -0.053694 -0.038419 -0.015799 -0.065263 0.15356 -0.0095149 -0.18963 -0.28326 0.027155 0.023674 0.13123 0.14944 -0.0028001 -0.18806 -0.018753 0.076125 0.063296 0.0022449 0.027894 -0.13834 -0.0082631 0.020101 -0.012368 -0.06131 -0.18784 -0.0255 0.06535 0.076164 0.1046 0.16245 0.14906 -0.081086 0.019615 0.0086453 0.099969 0.098365 0.096025 0.014675 -0.063483 0.038739 -0.14527 -0.030344 -0.041436 -0.14762 -0.08351 -0.048873 -0.088124 0.042318 -0.050187 -0.039518 -0.037494 -0.1777 0.086423 -0.027388 -0.13611 0.10952 -0.092726 0.1601 -0.11066 0.020652 -0.12851 -0.0045286 0.024955 0.14354 -0.04118 0.048619 -0.057559 0.074735 0.092825 -0.070915 -0.038152 -0.054605 -0.028915 0.077955 0.0092214 0.10069 -0.10274 0.097023 0.059963 0.17407 0.062433 0.11455 0.14051 0.059205 -0.12747 -0.14579 0.13629 0.09143 0.17279 0.0608 -0.011619 0.05032 -0.028827 0.13044 -0.04665 -0.21549 0.094719 0.0029445 0.1335 -0.044818 -0.080061 0.1407 0.10704 -0.17754 0.012981 -0.068509 0.18634 -0.04404 -0.20296 -0.017258 0.099602 -0.077285 0.036076 0.0057217 0.12197 -0.093237 -0.04846 -0.06455 0.087819 0.066929 0.04416 -0.035093 -0.20804 0.048589 0.089774 0.053578 
? -0.12795 0.07191 -0.063933 -0.044828 0.072941 0.10668 0.07745 -0.029117 0.050499 0.077822 0.018001 0.14489 0.079994 0.090872 -0.1577 -0.032458 -0.0017569 -0.065636 0.043432 -0.041528 0.0024535 0.028828 0.10429 0.13245 -0.02502 -0.057406 0.020954 0.14431 -0.10291 0.065419 -0.028226 0.054561 0.054448 0.10914 -0.0045048 -0.086123 0.13075 -0.065287 0.049212 -0.14053 0.15433 0.053786 0.14523 -0.063273 -0.036776 0.0088823 0.075933 0.020887 -0.09502 -0.069347 0.036797 0.21269 -0.031864 0.0029652 -0.053675 0.075368 -0.056626 0.015652 0.032562 0.079183 -0.098651 -0.087928 0.061499 0.094603 -0.13366 -0.048897 -0.013328 0.37066 0.031452 0.13845 -0.19511 -0.16293 -0.009733 0.013915 0.077909 0.10403 -0.049084 0.1786 0.17167 -0.13446 -0.11757 0.041923 0.19124 -0.028683 0.031881 0.014095 0.078243 -0.0045925 0.08966 -0.033862 -0.031319 -0.05315 0.13179 -0.026384 -0.020147 -0.0011709 0.13625 0.038833 0.13012 0.053036 0.079445 0.032768 0.12463 -0.0076256 0.10355 -0.14295 -0.11821 0.023928 0.053058 0.11254 0.024512 -0.13368 0.015296 0.087004 0.1502 -0.15454 0.096461 -0.054773 -0.26352 0.11549 0.053249 0.18237 0.062187 -0.016259 -0.23282 -0.038732 0.055209 0.093435 0.13061 0.12536 0.029287 -0.19353 -0.067129 -0.18505 -0.10951 -0.024157 -0.10599 0.0077531 -0.16404 -0.040883 -0.21855 0.10705 0.16129 -0.053212 0.19472 -0.078899 0.065992 -0.058958 -0.081741 -0.092089 -0.065205 0.043463 0.17791 0.25118 -0.094643 -0.10325 -0.29868 -0.01814 0.22752 0.063794 0.059938 -0.044342 -0.020183 0.090633 0.045374 0.11013 0.12413 -0.037975 -0.16295 -0.042328 0.02929 0.12222 0.13719 0.026187 -0.05866 -0.039779 -0.013434 -0.067928 0.15842 -0.014703 -0.18661 -0.28112 0.021142 0.020985 0.13088 0.14654 -0.0039068 -0.1822 -0.015893 0.076469 0.061902 -0.00088886 0.029593 -0.13659 -0.012115 0.023894 -0.010239 -0.06402 -0.1763 -0.019245 0.055042 0.078183 0.10562 0.16131 0.14903 -0.073949 0.021832 0.0076452 0.087457 0.08855 0.10089 0.016053 -0.062915 0.039653 -0.14448 -0.030471 -0.042648 -0.1405 -0.072141 -0.052446 -0.096438 0.045214 -0.046079 -0.034876 -0.036793 -0.1705 0.080093 -0.025388 -0.12719 0.10368 -0.095452 0.15466 -0.11095 0.01831 -0.12563 0.0041416 0.027462 0.13071 -0.047488 0.042228 -0.053649 0.067822 0.085828 -0.071448 -0.035341 -0.052323 -0.032509 0.067599 0.0045134 0.096037 -0.098468 0.090322 0.053031 0.1773 0.070791 0.10629 0.1395 0.069297 -0.1193 -0.14809 0.11928 0.082901 0.16665 0.055307 -0.0052288 0.042864 -0.029484 0.12355 -0.051203 -0.19534 0.083759 0.0026043 0.12674 -0.04251 -0.073889 0.13091 0.092699 -0.17041 0.0040247 -0.058111 0.16882 -0.041174 -0.18105 -0.0071945 0.096475 -0.070114 0.0324 0.0021516 0.11061 -0.084932 -0.041856 -0.061865 0.071233 0.067663 0.039587 -0.028345 -0.19987 0.0439 0.081434 0.044567 
to -0.13162 0.063772 -0.059264 -0.043679 0.074061 0.11031 0.072475 -0.035564 0.047452 0.076611 0.016882 0.14427 0.080705 0.087484 -0.14969 -0.026007 0.001502 -0.059033 0.034836 -0.039769 0.0068163 0.02248 0.10085 0.1387 -0.030951 -0.053749 0.020823 0.14801 -0.10606 0.073138 -0.032738 0.053624 0.052518 0.10906 0.0035829 -0.081564 0.1324 -0.061394 0.046616 -0.1343 0.14705 0.05497 0.14636 -0.060719 -0.03353 0.006984 0.074633 0.018 -0.087725 -0.072427 0.033886 0.21112 -0.034209 0.005398 -0.046312 0.071163 -0.057311 0.02464 0.035881 0.080281 -0.094004 -0.080849 0.066071 0.093656 -0.12935 -0.045965 -0.0093873 0.35481 0.031774 0.13548 -0.2027 -0.15867 -0.014608 0.0024982 0.064661 0.094572 -0.042103 0.16055 0.1638 -0.1256 -0.11383 0.039307 0.18634 -0.037371 0.024707 0.013532 0.083506 -0.0046704 0.088538 -0.034345 -0.02504 -0.049001 0.13107 -0.028809 -0.021916 -0.00091557 0.1388 0.032875 0.12879 0.060397 0.068864 0.028025 0.12061 -0.0011352 0.099997 -0.13757 -0.11826 0.022987 0.049414 0.10071 0.020383 -0.13921 0.019831 0.082391 0.14511 -0.14074 0.094689 -0.058135 -0.24605 0.09649 0.04538 0.1722 0.063921 -0.01769 -0.22707 -0.037408 0.056703 0.090631 0.12682 0.12179 0.03735 -0.19781 -0.063324 -0.16839 -0.10831 -0.022312 -0.099308 0.004271 -0.15362 -0.04028 -0.20763 0.10058 0.15246 -0.052044 0.18747 -0.071125 0.060998 -0.0461 -0.075596 -0.085499 -0.069538 0.033705 0.1689 0.24888 -0.099269 -0.097465 -0.29048 -0.028052 0.22339 0.056165 0.057759 -0.037237 -0.017896 0.090276 0.041317 0.10325 0.12444 -0.033941 -0.15843 -0.044795 0.022692 0.11605 0.12793 0.024072 -0.050809 -0.036692 -0.019613 -0.057728 0.15063 -0.012347 -0.19286 -0.28502 0.029434 0.023976 0.12843 0.1512 0.00087708 -0.17803 -0.011974 0.073016 0.063486 -0.00032702 0.020885 -0.14371 -0.018959 0.020831 -0.010574 -0.062953 -0.18415 -0.015124 0.057385 0.078462 0.10615 0.16186 0.15117 -0.079651 0.023603 0.019432 0.086733 0.09137 0.096837 0.01513 -0.070074 0.048663 -0.1416 -0.029697 -0.038482 -0.13963 -0.066888 -0.053499 -0.095316 0.05117 -0.050032 -0.038497 -0.040136 -0.17959 0.08243 -0.025218 -0.13011 0.10212 -0.099244 0.15266 -0.10472 0.017395 -0.12908 0.0061806 0.035587 0.13561 -0.047995 0.042609 -0.055297 0.063631 0.088302 -0.070694 -0.036178 -0.053459 -0.033565 0.072686 0.0059696 0.10309 -0.10356 0.096288 0.047079 0.17642 0.067608 0.10759 0.1362 0.067436 -0.12271 -0.14286 0.11895 0.08636 0.16372 0.059684 -0.010471 0.043653 -0.021293 0.12416 -0.049507 -0.18943 0.087654 -0.0022862 0.12459 -0.026769 -0.070189 0.13596 0.094806 -0.17343 0.0016093 -0.062673 0.16931 -0.035879 -0.1888 -0.0088084 0.10199 -0.072044 0.035777 0.0020754 0.11426 -0.08756 -0.040471 -0.067355 0.075141 0.067385 0.035626 -0.036566 -0.19591 0.051234 0.082646 0.040224 
a -0.13448 0.0716 -0.059353 -0.0381 0.073164 0.10934 0.077146 -0.032217 0.041138 0.080387 0.012535 0.1431 0.078783 0.090354 -0.16041 -0.032835 0.0020147 -0.063293 0.043157 -0.046214 -0.0051148 0.030933 0.10652 0.135 -0.036476 -0.055154 0.024844 0.14104 -0.10094 0.065607 -0.029372 0.047256 0.061506 0.10124 -0.0026824 -0.08713 0.12189 -0.060514 0.050753 -0.13107 0.14269 0.060551 0.14463 -0.058811 -0.039246 0.0076508 0.077876 0.013528 -0.09538 -0.067609 0.035249 0.2022 -0.025434 0.013523 -0.047325 0.077345 -0.051918 0.014968 0.030949 0.07875 -0.090467 -0.084154 0.059307 0.097527 -0.12997 -0.043326 -0.014367 0.36104 0.025136 0.13796 -0.19153 -0.15298 -0.012562 0.009134 0.073733 0.098023 -0.039801 0.16422 0.17336 -0.13149 -0.10401 0.037776 0.17894 -0.034607 0.020469 0.0083409 0.070525 -0.0070292 0.093624 -0.03301 -0.028333 -0.04706 0.13524 -0.033909 -0.028243 -0.0024858 0.1346 0.044286 0.12832 0.043813 0.076298 0.027218 0.11671 0.0050731 0.10131 -0.13596 -0.11362 0.020151 0.052629 0.10167 0.023527 -0.12778 0.014963 0.085154 0.14235 -0.15397 0.09094 -0.058198 -0.25011 0.10953 0.048071 0.1773 0.069559 -0.0086625 -0.23007 -0.04687 0.049968 0.095977 0.13138 0.12151 0.028615 -0.18795 -0.061348 -0.18752 -0.10016 -0.035145 -0.098884 0.0052739 -0.15531 -0.041309 -0.21675 0.099957 0.15269 -0.051697 0.19275 -0.072591 0.07462 -0.055583 -0.083622 -0.085266 -0.063533 0.038978 0.1706 0.24296 -0.10422 -0.10602 -0.29027 -0.016741 0.22542 0.06031 0.058434 -0.035585 -0.016759 0.092892 0.035598 0.11143 0.12384 -0.030813 -0.1565 -0.040066 0.029621 0.11564 0.13613 0.016716 -0.055466 -0.035271 -0.015217 -0.063 0.15727 -0.0099451 -0.18898 -0.28466 0.020327 0.023557 0.12998 0.14416 -0.001125 -0.18446 -0.028912 0.070444 0.056983 0.009338 0.026262 -0.13981 -0.017234 0.015948 -0.0049362 -0.063268 -0.18106 -0.020698 0.061258 0.078273 0.10765 0.16549 0.15016 -0.075169 0.024176 0.016652 0.088478 0.087881 0.09761 0.013404 -0.065411 0.038366 -0.14222 -0.029108 -0.045406 -0.14359 -0.076248 -0.048414 -0.089764 0.050141 -0.047523 -0.038642 -0.041458 -0.17499 0.08112 -0.019956 -0.13391 0.10488 -0.09541 0.15616 -0.11036 0.016168 -0.12392 0.0039309 0.03122 0.12868 -0.049159 0.040461 -0.053697 0.073667 0.090553 -0.070175 -0.041019 -0.05907 -0.034305 0.073297 0.0026696 0.10078 -0.10542 0.094358 0.052165 0.17646 0.071783 0.10788 0.13598 0.064545 -0.12549 -0.15075 0.12604 0.088873 0.16717 0.057885 -0.0033739 0.044902 -0.030968 0.13052 -0.054267 -0.20501 0.085219 0.0053146 0.12757 -0.03658 -0.075779 0.13289 0.093608 -0.17177 0.00379 -0.060422 0.17658 -0.041777 -0.19286 -0.0096319 0.094701 -0.070513 0.040289 -0.00030187 0.11553 -0.091541 -0.046472 -0.060727 0.072799 0.067487 0.042066 -0.038618 -0.20035 0.048662 0.084474 0.041591 
how -0.13006 0.070539 -0.057071 -0.043636 0.077388 0.11557 0.072031 -0.02972 0.050933 0.086625 0.016486 0.15663 0.089732 0.098215 -0.16544 -0.021374 -0.0027422 -0.065415 0.044274 -0.043544 0.0077953 0.022468 0.11119 0.14699 -0.029906 -0.058164 0.026327 0.15714 -0.09733 0.072766 -0.023171 0.059812 0.060637 0.10969 -0.0045577 -0.088105 0.14208 -0.071478 0.042778 -0.14031 0.16117 0.051746 0.15381 -0.067034 -0.02918 0.006738 0.075637 0.028938 -0.092988 -0.068602 0.03272 0.22121 -0.033218 0.0073988 -0.056963 0.073108 -0.064417 0.014006 0.025944 0.078974 -0.094786 -0.091104 0.070573 0.097119 -0.13604 -0.042303 -0.012343 0.37627 0.035921 0.13429 -0.21026 -0.16747 -0.0065838 0.0062645 0.072154 0.10059 -0.054681 0.17294 0.17536 -0.13562 -0.12062 0.044278 0.18376 -0.035001 0.026735 0.014024 0.070705 -0.013427 0.08911 -0.023469 -0.030452 -0.052255 0.13237 -0.03155 -0.020677 -0.0047769 0.13346 0.03979 0.12101 0.053414 0.071427 0.026231 0.11707 -0.0032423 0.096374 -0.13174 -0.1158 0.030212 0.050854 0.10254 0.027845 -0.1334 0.014508 0.081425 0.14313 -0.14409 0.087988 -0.057612 -0.23981 0.091456 0.049792 0.16012 0.059863 -0.011857 -0.21262 -0.041419 0.050942 0.081791 0.125 0.1166 0.024838 -0.19233 -0.066805 -0.16707 -0.10509 -0.025688 -0.093127 0.0036574 -0.15421 -0.037807 -0.19329 0.098891 0.14317 -0.051226 0.17808 -0.072826 0.06362 -0.056221 -0.067867 -0.092931 -0.057428 0.031115 0.16461 0.24158 -0.098901 -0.098167 -0.28291 -0.025505 0.21758 0.051177 0.048929 -0.035638 -0.021842 0.085535 0.044914 0.10427 0.12469 -0.03648 -0.16343 -0.036353 0.021874 0.11666 0.12465 0.021892 -0.049101 -0.045047 -0.0088759 -0.071476 0.14995 -0.018996 -0.17394 -0.27895 0.021308 0.020057 0.12288 0.15598 -0.0083113 -0.18407 -0.012884 0.082376 0.061361 -0.0076408 0.023901 -0.14272 -0.0085914 0.018575 -0.01456 -0.056484 -0.18109 -0.0038361 0.054092 0.070831 0.1039 0.158 0.15094 -0.074391 0.017422 0.016017 0.089244 0.088467 0.10365 0.016241 -0.060371 0.049303 -0.13863 -0.026882 -0.033059 -0.14129 -0.064956 -0.049726 -0.097118 0.053577 -0.047084 -0.028648 -0.041054 -0.17048 0.081588 -0.032813 -0.13087 0.10877 -0.096511 0.14742 -0.11124 0.014319 -0.11983 -0.0022474 0.030578 0.13438 -0.043147 0.039377 -0.054034 0.06221 0.083399 -0.069343 -0.038439 -0.041257 -0.030121 0.063098 0.00089152 0.1051 -0.10607 0.096044 0.048561 0.17773 0.05817 0.10063 0.13564 0.061691 -0.12288 -0.14194 0.11446 0.084641 0.16007 0.062205 -0.01016 0.034413 -0.021284 0.11716 -0.053329 -0.18558 0.083675 -0.0051824 0.1167 -0.026609 -0.068794 0.1295 0.078427 -0.16598 0.001546 -0.059005 0.16429 -0.03265 -0.17316 -0.0018685 0.088033 -0.065171 0.02421 0.0025028 0.11469 -0.089764 -0.035088 -0.058502 0.071345 0.065339 0.037175 -0.028828 -0.18026 0.046094 0.081404 0.031767 
the -0.11588 0.065238 -0.050887 -0.051186 0.057558 0.10709 0.073608 -0.025969 0.03506 0.070362 0.025515 0.12367 0.072539 0.081493 -0.13301 -0.028108 -0.010874 -0.05919 0.037676 -0.036778 -0.006504 0.01702 0.083862 0.1189 -0.023803 -0.0508 0.02272 0.13215 -0.092558 0.063378 -0.039657 0.041143 0.034844 0.08746 -0.0098478 -0.083973 0.10072 -0.040505 0.049075 -0.14235 0.1256 0.050846 0.14949 -0.049494 -0.041039 0.010612 0.056439 0.022314 -0.084355 -0.071049 0.024536 0.19559 -0.033731 0.00080628 -0.028469 0.066227 -0.059509 0.019048 0.040898 0.081541 -0.086339 -0.078479 0.0529 0.089757 -0.10875 -0.051095 -0.012411 0.32994 0.017229 0.13222 -0.18891 -0.14439 -0.020579 0.0042481 0.061607 0.085021 -0.0316 0.15795 0.16106 -0.13034 -0.1114 0.043014 0.18743 -0.01837 0.018778 0.018615 0.10014 -0.0040043 0.085448 -0.038224 -0.034168 -0.040964 0.14686 -0.019718 -0.02354 0.00073388 0.14631 0.047947 0.14057 0.072876 0.086808 0.027166 0.11861 -0.0065304 0.10113 -0.13773 -0.13503 0.016887 0.060421 0.11358 0.012992 -0.14627 0.018178 0.07583 0.15569 -0.15867 0.098396 -0.040426 -0.26574 0.13293 0.037626 0.18378 0.064398 -0.026769 -0.23589 -0.04308 0.059855 0.10518 0.11947 0.12335 0.049833 -0.21131 -0.057796 -0.175 -0.10033 -0.019309 -0.1108 -0.0013743 -0.1725 -0.047506 -0.23914 0.11284 0.17709 -0.046343 0.20048 -0.079119 0.071234 -0.055756 -0.085843 -0.091344 -0.069506 0.057771 0.1811 0.25483 -0.097672 -0.10493 -0.2994 -0.02334 0.24586 0.062205 0.054208 -0.055207 -0.02025 0.095755 0.036511 0.11426 0.1267 -0.037312 -0.15175 -0.051406 0.019788 0.12403 0.14648 0.020126 -0.05512 -0.037138 -0.028257 -0.066513 0.15299 -0.019528 -0.20261 -0.29754 0.030137 0.014622 0.13399 0.15714 0.010719 -0.18884 -0.01642 0.068374 0.066979 0.009019 0.027678 -0.12975 -0.015971 0.022351 -0.016997 -0.073384 -0.18718 -0.027386 0.064628 0.090199 0.10197 0.16935 0.1492 -0.075029 0.029534 0.016822 0.086469 0.098398 0.1119 0.034888 -0.05791 0.041785 -0.14887 -0.043862 -0.041496 -0.14308 -0.074581 -0.05076 -0.097066 0.05204 -0.054271 -0.041851 -0.029654 -0.16473 0.079565 -0.011628 -0.13313 0.093138 -0.10386 0.16238 -0.10586 0.017893 -0.12766 0.0071542 0.022529 0.13837 -0.040731 0.043964 -0.039994 0.076391 0.10086 -0.077979 -0.034317 -0.074475 -0.040103 0.082123 0.011007 0.090226 -0.10539 0.1101 0.053986 0.16844 0.087354 0.10266 0.14466 0.075408 -0.10485 -0.1449 0.14541 0.087691 0.17621 0.048411 -0.0051476 0.046931 -0.027534 0.14753 -0.040765 -0.20481 0.08876 0.016225 0.14533 -0.043825 -0.067891 0.1458 0.11149 -0.18214 0.027803 -0.064844 0.19002 -0.044976 -0.20575 -0.016036 0.11019 -0.081788 0.055328 0.0044236 0.11449 -0.082228 -0.044354 -0.072487 0.080803 0.082368 0.04235 -0.032285 -0.21722 0.04632 0.086585 0.069233 
i -0.13092 0.073454 -0.060259 -0.039402 0.071714 0.10664 0.068715 -0.028966 0.04284 0.08416 0.014474 0.14605 0.082634 0.093417 -0.16186 -0.022375 0.0028668 -0.065016 0.042986 -0.046946 0.0052124 0.018165 0.11016 0.1477 -0.035774 -0.059496 0.025212 0.15278 -0.1017 0.070286 -0.026095 0.061358 0.058515 0.1072 0.00021388 -0.090972 0.13646 -0.071971 0.041167 -0.1344 0.15919 0.050462 0.14971 -0.062286 -0.026085 0.0063116 0.077745 0.030801 -0.089342 -0.071487 0.028596 0.22173 -0.036513 0.011882 -0.056543 0.072768 -0.059739 0.015029 0.032482 0.082514 -0.094757 -0.083815 0.073978 0.10359 -0.13618 -0.040538 -0.011319 0.36879 0.029703 0.13679 -0.20528 -0.16749 -0.0054327 0.0080302 0.067569 0.1028 -0.055461 0.16621 0.16826 -0.13915 -0.11733 0.030377 0.17768 -0.041806 0.023078 0.01902 0.070289 -0.01099 0.089519 -0.028203 -0.0314 -0.049946 0.12937 -0.039045 -0.020873 -0.0065213 0.13061 0.036422 0.12285 0.052061 0.065975 0.026789 0.12511 -0.00036617 0.098922 -0.13745 -0.11328 0.029484 0.054791 0.098347 0.023402 -0.13482 0.016558 0.080094 0.14465 -0.14327 0.088438 -0.064188 -0.24556 0.086837 0.050616 0.16956 0.07237 -0.0069575 -0.22319 -0.044608 0.042557 0.082796 0.12944 0.1134 0.02305 -0.1907 -0.062747 -0.17258 -0.099709 -0.029654 -0.096087 0.00057178 -0.15945 -0.042107 -0.19323 0.098525 0.14048 -0.047519 0.18553 -0.070244 0.065164 -0.061475 -0.069729 -0.0973 -0.058037 0.025508 0.1632 0.24434 -0.10845 -0.10222 -0.28104 -0.027376 0.22184 0.047714 0.048839 -0.028426 -0.026543 0.087307 0.045489 0.10191 0.12702 -0.033449 -0.15904 -0.034724 0.022329 0.11697 0.12258 0.024985 -0.05004 -0.040165 -0.0032026 -0.067786 0.15157 -0.017162 -0.17735 -0.28415 0.025762 0.023375 0.12528 0.15651 -0.008805 -0.18568 -0.0092548 0.076997 0.06207 -0.0092634 0.020323 -0.14631 -0.0070156 0.017958 -0.01441 -0.058231 -0.17723 -0.0030276 0.057095 0.076368 0.10857 0.16566 0.14973 -0.074015 0.019983 0.020155 0.10242 0.090615 0.10216 0.011559 -0.060745 0.049952 -0.13415 -0.030702 -0.036659 -0.14356 -0.06514 -0.051678 -0.1048 0.051759 -0.044868 -0.033198 -0.044375 -0.1801 0.0921 -0.02745 -0.13975 0.11674 -0.096312 0.14851 -0.11299 0.015293 -0.12683 -0.0012937 0.035333 0.13615 -0.040437 0.047508 -0.055082 0.060225 0.087688 -0.070066 -0.036535 -0.03945 -0.027202 0.063788 0.0017152 0.11403 -0.108 0.097116 0.049116 0.1819 0.059884 0.10208 0.14194 0.058238 -0.13471 -0.14201 0.11828 0.091234 0.1622 0.06215 -0.012544 0.040333 -0.016554 0.12127 -0.054031 -0.19748 0.08744 0.00066513 0.12329 -0.028282 -0.075632 0.13666 0.086364 -0.17413 -0.006692 -0.063069 0.17278 -0.035227 -0.18887 -0.0090767 0.09512 -0.069186 0.019487 0.00084059 0.11941 -0.097214 -0.040267 -0.057757 0.084053 0.06601 0.033117 -0.028395 -0.192 0.045219 0.083525 0.032471 
in -0.12931 0.065417 -0.062411 -0.041745 0.068528 0.098236 0.070539 -0.029046 0.043493 0.079523 0.01866 0.14087 0.072447 0.091318 -0.16452 -0.031059 0.0024731 -0.066162 0.041631 -0.043603 -0.0021175 0.023483 0.10425 0.13131 -0.031233 -0.058905 0.02301 0.13713 -0.10275 0.061122 -0.023814 0.048149 0.059916 0.1015 0.00056243 -0.083675 0.13004 -0.058957 0.052148 -0.1345 0.14115 0.053544 0.14903 -0.059664 -0.033031 0.011572 0.076049 0.019151 -0.089153 -0.072167 0.042463 0.21406 -0.03108 0.0091364 -0.050367 0.070638 -0.054325 0.0088047 0.026506 0.07956 -0.093183 -0.086949 0.063734 0.10111 -0.12608 -0.052139 -0.0098437 0.36035 0.026153 0.13743 -0.19116 -0.15923 -0.019461 0.020179 0.079905 0.10044 -0.051293 0.16908 0.16737 -0.13201 -0.11166 0.03585 0.17808 -0.035275 0.027138 0.011985 0.070584 -0.007345 0.096456 -0.029922 -0.025853 -0.062515 0.13247 -0.032575 -0.018008 -0.002122 0.13769 0.044428 0.1324 0.044325 0.075123 0.027146 0.12349 0.0059985 0.096296 -0.14617 -0.1165 0.021203 0.061257 0.11113 0.024819 -0.13431 0.015971 0.085383 0.14723 -0.14989 0.090525 -0.060772 -0.25142 0.1169 0.053689 0.1807 0.064605 -0.013974 -0.23263 -0.040792 0.055343 0.095461 0.12611 0.11885 0.030034 -0.19244 -0.064134 -0.18856 -0.10329 -0.024794 -0.10129 0.0089788 -0.16984 -0.038721 -0.22218 0.10619 0.1606 -0.059405 0.19147 -0.077737 0.072147 -0.060517 -0.091089 -0.090617 -0.057868 0.036364 0.17899 0.24317 -0.10002 -0.10719 -0.29422 -0.018365 0.22939 0.057421 0.052547 -0.036975 -0.029478 0.080942 0.040366 0.10956 0.12885 -0.034041 -0.15326 -0.040598 0.028102 0.11653 0.13787 0.020369 -0.049292 -0.0366 -0.011293 -0.068777 0.15738 -0.018915 -0.18977 -0.28063 0.016128 0.013631 0.12778 0.14181 0.0088319 -0.18388 -0.019758 0.065885 0.057318 0.0026346 0.021883 -0.14089 -0.010283 0.019924 0.0010711 -0.062888 -0.17625 -0.02179 0.049571 0.080364 0.097672 0.16095 0.14848 -0.069641 0.017677 0.015578 0.096504 0.086722 0.10171 0.012988 -0.064605 0.045296 -0.13472 -0.028698 -0.037584 -0.14487 -0.077203 -0.049234 -0.094634 0.0444 -0.048396 -0.042465 -0.04571 -0.1721 0.081743 -0.023101 -0.12983 0.10659 -0.092163 0.15089 -0.11421 0.020928 -0.12243 0.0035662 0.033857 0.13028 -0.049115 0.038852 -0.050777 0.065136 0.087736 -0.075989 -0.040726 -0.054035 -0.029539 0.061617 0.0079106 0.096668 -0.10122 0.09346 0.05213 0.1808 0.066481 0.10917 0.13582 0.071353 -0.12002 -0.14786 0.12951 0.082975 0.16474 0.05873 -0.0064233 0.046901 -0.030425 0.12852 -0.049518 -0.20373 0.085516 -0.0025926 0.12747 -0.038137 -0.075628 0.13735 0.087611 -0.17043 0.00023712 -0.053631 0.16113 -0.042392 -0.18896 -0.0073535 0.09446 -0.062269 0.032846 0.0018428 0.11846 -0.084297 -0.043991 -0.068153 0.074512 0.061594 0.045743 -0.028366 -0.19783 0.04019 0.089091 0.049265 
is -0.10918 0.054429 -0.046306 -0.038537 0.050455 0.096091 0.070406 -0.028859 0.040966 0.06798 0.015553 0.11816 0.065556 0.075524 -0.12429 -0.023453 -0.0044563 -0.058226 0.039122 -0.039985 -0.0025262 0.020125 0.081661 0.11325 -0.026895 -0.049316 0.017302 0.12605 -0.096297 0.060212 -0.036924 0.034953 0.03894 0.08288 -0.0051124 -0.079915 0.095253 -0.038695 0.046445 -0.12901 0.11615 0.051142 0.13482 -0.044415 -0.039227 0.0085537 0.055864 0.018734 -0.079102 -0.060378 0.028752 0.18171 -0.030015 -0.00029246 -0.034837 0.05747 -0.050169 0.020569 0.032433 0.0819 -0.080491 -0.067415 0.056715 0.087418 -0.11075 -0.049914 -0.0078862 0.30134 0.020151 0.12506 -0.17435 -0.13261 -0.020523 0.0078125 0.057937 0.075735 -0.029818 0.1481 0.15003 -0.11945 -0.10476 0.039414 0.17326 -0.02606 0.011778 0.012268 0.094511 -0.0023499 0.084691 -0.035243 -0.029927 -0.039852 0.14176 -0.0201 -0.021393 0.0018777 0.14211 0.046016 0.13628 0.066083 0.07923 0.02464 0.11505 0.00094382 0.097092 -0.13746 -0.12518 0.018736 0.058078 0.10397 0.0091648 -0.13516 0.014321 0.077024 0.14863 -0.14854 0.092301 -0.05173 -0.2531 0.12117 0.042085 0.18096 0.065643 -0.026371 -0.23165 -0.041658 0.054885 0.093886 0.12265 0.11901 0.050325 -0.20261 -0.059936 -0.17525 -0.10867 -0.024826 -0.1099 9.1781e-05 -0.16401 -0.044379 -0.23296 0.10844 0.1713 -0.052595 0.18841 -0.075154 0.069835 -0.050949 -0.088947 -0.082217 -0.069493 0.04883 0.17449 0.24453 -0.10213 -0.10504 -0.29138 -0.019512 0.23155 0.062169 0.060692 -0.055065 -0.018639 0.08736 0.032647 0.10468 0.12408 -0.04023 -0.14653 -0.052305 0.018695 0.12584 0.14359 0.023521 -0.051186 -0.035996 -0.023312 -0.059755 0.15229 -0.015938 -0.19717 -0.29873 0.028306 0.016168 0.13161 0.15449 0.014478 -0.18151 -0.021476 0.061924 0.057763 0.0062676 0.022536 -0.13734 -0.020402 0.023242 -0.011918 -0.07122 -0.18628 -0.021452 0.057286 0.085461 0.106 0.17222 0.14918 -0.076429 0.026408 0.019604 0.089061 0.091769 0.10993 0.026203 -0.068289 0.034569 -0.14461 -0.036015 -0.046139 -0.1385 -0.075809 -0.052133 -0.097037 0.04992 -0.05221 -0.044254 -0.035546 -0.17347 0.083506 -0.018305 -0.13462 0.095771 -0.10001 0.16033 -0.10106 0.020225 -0.13511 0.0068924 0.030377 0.14155 -0.044507 0.04489 -0.045351 0.080409 0.10405 -0.076314 -0.041683 -0.067008 -0.035582 0.075578 0.011229 0.094788 -0.10524 0.10672 0.054644 0.18025 0.080224 0.11093 0.14293 0.076909 -0.11938 -0.14066 0.14509 0.084082 0.17189 0.050448 -0.008563 0.05052 -0.029712 0.14488 -0.044195 -0.20678 0.090331 0.0082105 0.14551 -0.038353 -0.067108 0.14447 0.11704 -0.18721 0.016903 -0.065194 0.18684 -0.042202 -0.20447 -0.018445 0.11117 -0.079039 0.057945 0.00017567 0.11827 -0.083086 -0.046571 -0.075811 0.088133 0.08131 0.044133 -0.040751 -0.22026 0.053438 0.08527 0.059762 
what -0.1209 0.05691 -0.052648 -0.046662 0.055223 0.10099 0.072757 -0.02852 0.036758 0.074086 0.019901 0.124 0.066858 0.083034 -0.13856 -0.024021 -0.004817 -0.065496 0.036204 -0.039935 -0.0067082 0.022076 0.086221 0.11772 -0.028527 -0.051261 0.017422 0.14003 -0.10325 0.0633 -0.039659 0.039781 0.039376 0.08559 -0.0072729 -0.081323 0.10302 -0.045572 0.045553 -0.14019 0.12202 0.052413 0.14436 -0.045363 -0.042657 0.0094848 0.064766 0.018959 -0.085338 -0.063125 0.027655 0.19012 -0.033603 0.0034717 -0.039501 0.061084 -0.048982 0.018961 0.036425 0.08506 -0.080779 -0.072245 0.056618 0.090723 -0.11044 -0.052268 -0.0055788 0.32066 0.017608 0.129 -0.17973 -0.1465 -0.022924 0.0085653 0.064785 0.077346 -0.03449 0.15426 0.15928 -0.12383 -0.11061 0.039821 0.18341 -0.024929 0.015391 0.017254 0.093614 -0.0015991 0.086808 -0.040598 -0.034716 -0.04547 0.14287 -0.021093 -0.021585 0.0012543 0.14217 0.046151 0.13261 0.06626 0.082982 0.026209 0.11635 -0.0010918 0.099972 -0.13329 -0.12381 0.017702 0.0532 0.10283 0.011778 -0.14047 0.014706 0.074261 0.14989 -0.15085 0.093222 -0.045251 -0.25088 0.12215 0.041346 0.17993 0.064065 -0.028465 -0.23408 -0.044145 0.059748 0.099271 0.11998 0.11633 0.045475 -0.20248 -0.059448 -0.17571 -0.10086 -0.025474 -0.10887 0.00027319 -0.16117 -0.047322 -0.22525 0.10514 0.16781 -0.047568 0.1919 -0.078022 0.071829 -0.050934 -0.084136 -0.082592 -0.064896 0.050516 0.17143 0.24944 -0.10232 -0.10634 -0.2917 -0.019732 0.23286 0.061555 0.055763 -0.051247 -0.02342 0.087521 0.032441 0.10627 0.12598 -0.033857 -0.14343 -0.048589 0.024686 0.12162 0.14331 0.022772 -0.051418 -0.03273 -0.0252 -0.060997 0.15057 -0.016599 -0.19429 -0.29452 0.02447 0.017801 0.12943 0.15278 0.0097914 -0.18182 -0.025767 0.063934 0.062766 0.0094667 0.019943 -0.13824 -0.027238 0.027576 -0.013119 -0.071521 -0.18047 -0.023528 0.05922 0.08884 0.10692 0.16758 0.14807 -0.070947 0.028151 0.021044 0.091113 0.091686 0.11014 0.026217 -0.067717 0.037593 -0.13901 -0.039211 -0.048471 -0.13929 -0.064057 -0.054027 -0.097313 0.052855 -0.056137 -0.042352 -0.037313 -0.17398 0.087021 -0.010234 -0.13715 0.099412 -0.099986 0.15935 -0.10753 0.017247 -0.13422 0.0081491 0.025376 0.13984 -0.04855 0.042878 -0.04307 0.075507 0.099351 -0.076892 -0.033703 -0.065758 -0.037325 0.071299 0.014117 0.096418 -0.1022 0.10798 0.050711 0.17527 0.076613 0.10453 0.14172 0.078723 -0.11173 -0.14386 0.14563 0.083414 0.17125 0.048598 -0.0073367 0.048772 -0.024128 0.14064 -0.040009 -0.19962 0.084899 0.011799 0.14324 -0.040833 -0.069072 0.13816 0.11093 -0.18087 0.018224 -0.058076 0.18738 -0.044697 -0.20337 -0.016689 0.10843 -0.07745 0.052245 0.0031062 0.112 -0.082284 -0.045757 -0.070456 0.083312 0.078949 0.042327 -0.038206 -0.22011 0.044743 0.086714 0.06106 
for -0.12046 0.057685 -0.058036 -0.036759 0.063401 0.091659 0.070718 -0.033261 0.040756 0.076109 0.015122 0.13098 0.070438 0.089667 -0.15609 -0.031257 0.0006014 -0.064982 0.039781 -0.044515 -0.0042983 0.028984 0.10077 0.12545 -0.031226 -0.051461 0.019181 0.14068 -0.10099 0.060228 -0.027579 0.048805 0.05706 0.10162 -0.0065525 -0.083221 0.11639 -0.052077 0.04884 -0.13071 0.13422 0.056154 0.13897 -0.055226 -0.036525 0.0089495 0.072482 0.021698 -0.088373 -0.065668 0.043365 0.20113 -0.031457 0.0079633 -0.050917 0.067842 -0.049194 0.012556 0.02968 0.081319 -0.086675 -0.078315 0.060368 0.093897 -0.1181 -0.053874 -0.0083825 0.34379 0.021015 0.13224 -0.17926 -0.15614 -0.014624 0.016024 0.078927 0.093215 -0.04506 0.15941 0.1599 -0.12539 -0.11032 0.040873 0.17477 -0.029046 0.02725 0.0092002 0.077933 -0.0046449 0.090752 -0.035807 -0.029857 -0.057215 0.13215 -0.028419 -0.020442 0.0024673 0.13482 0.043763 0.12614 0.04888 0.073956 0.027122 0.11881 -0.0027046 0.098258 -0.14198 -0.11515 0.020024 0.058149 0.10997 0.02253 -0.13124 0.01267 0.07714 0.14566 -0.14733 0.091937 -0.063512 -0.25416 0.11153 0.054003 0.18152 0.059003 -0.01675 -0.23401 -0.038731 0.058298 0.092971 0.12687 0.1198 0.034042 -0.19089 -0.066264 -0.18588 -0.10329 -0.026116 -0.10829 0.0065867 -0.1654 -0.038366 -0.22427 0.103 0.16414 -0.056101 0.19054 -0.080665 0.074536 -0.056921 -0.087894 -0.0847 -0.063041 0.041272 0.18195 0.24795 -0.10254 -0.10855 -0.29683 -0.016357 0.23104 0.063117 0.059105 -0.040956 -0.026501 0.084232 0.043629 0.11076 0.1286 -0.03626 -0.15569 -0.042925 0.026695 0.11707 0.13748 0.023035 -0.048997 -0.035586 -0.014951 -0.067783 0.15829 -0.016704 -0.18387 -0.28315 0.018401 0.018616 0.12625 0.14423 0.0072798 -0.18129 -0.018593 0.067925 0.063482 0.0027518 0.023525 -0.14193 -0.017816 0.023253 -0.0025917 -0.064484 -0.17646 -0.021578 0.051154 0.076658 0.10454 0.16066 0.14653 -0.071612 0.023238 0.019457 0.089359 0.087458 0.10316 0.018739 -0.065551 0.038204 -0.13962 -0.030088 -0.044362 -0.13461 -0.076263 -0.052198 -0.092597 0.045834 -0.04961 -0.042951 -0.035621 -0.17577 0.08379 -0.020013 -0.12479 0.10995 -0.095378 0.15273 -0.1068 0.023278 -0.12491 0.005674 0.032167 0.13803 -0.050022 0.038762 -0.052397 0.068084 0.093174 -0.074392 -0.042096 -0.059955 -0.033361 0.062981 0.0056613 0.095498 -0.096257 0.097116 0.054463 0.18113 0.070185 0.11084 0.14131 0.075037 -0.12147 -0.14699 0.13256 0.078266 0.17175 0.055694 -0.0087872 0.048256 -0.029139 0.12838 -0.046238 -0.20355 0.083561 0.0013094 0.13522 -0.042235 -0.076037 0.1393 0.097753 -0.17475 0.010355 -0.055005 0.17353 -0.042365 -0.19321 -0.0066922 0.10262 -0.067841 0.036782 -0.0016742 0.11666 -0.086849 -0.04633 -0.070935 0.074635 0.064471 0.045127 -0.03254 -0.21351 0.039109 0.086559 0.052784 
of -0.11639 0.052544 -0.056054 -0.038999 0.06052 0.097184 0.069883 -0.034857 0.043408 0.075477 0.014684 0.12962 0.065093 0.082316 -0.14163 -0.026318 -0.0043909 -0.062252 0.035307 -0.043421 -0.0057946 0.024058 0.092546 0.12055 -0.031782 -0.051203 0.018741 0.14045 -0.097937 0.062103 -0.030773 0.040554 0.049591 0.091276 -0.0051614 -0.082281 0.11129 -0.047598 0.048475 -0.13748 0.12767 0.05383 0.14334 -0.050044 -0.040617 0.0055452 0.069182 0.020452 -0.089627 -0.065167 0.038569 0.1977 -0.031481 0.01109 -0.044858 0.066893 -0.048636 0.010108 0.034223 0.080725 -0.087014 -0.0776 0.055345 0.092806 -0.11734 -0.053701 -0.0043783 0.32687 0.021021 0.13037 -0.17573 -0.14604 -0.020739 0.011428 0.069678 0.086624 -0.04129 0.15197 0.1636 -0.1266 -0.10852 0.040572 0.17517 -0.033142 0.016689 0.0056095 0.08011 -0.0063019 0.089554 -0.032539 -0.030546 -0.056818 0.13544 -0.024008 -0.017876 0.0008327 0.14343 0.049239 0.12991 0.049294 0.078918 0.021248 0.11442 0.00019688 0.09919 -0.13898 -0.12636 0.019839 0.053097 0.10406 0.017512 -0.13324 0.0092756 0.072531 0.14778 -0.15067 0.09423 -0.056587 -0.24498 0.12128 0.043045 0.17837 0.062451 -0.016704 -0.23431 -0.040102 0.058536 0.097071 0.12642 0.11816 0.035124 -0.19395 -0.067767 -0.18446 -0.10268 -0.025474 -0.10848 0.0026562 -0.16247 -0.041186 -0.22556 0.10712 0.16565 -0.056296 0.19197 -0.077488 0.076668 -0.0546 -0.08921 -0.081632 -0.058909 0.043918 0.17703 0.24614 -0.10375 -0.10298 -0.29119 -0.014907 0.23155 0.059542 0.051054 -0.041602 -0.028638 0.085119 0.038081 0.10646 0.12654 -0.035239 -0.14691 -0.049196 0.025092 0.11771 0.14011 0.018243 -0.052748 -0.037332 -0.019554 -0.062002 0.1518 -0.017215 -0.19164 -0.29114 0.022154 0.014274 0.12885 0.14511 0.012679 -0.17705 -0.023727 0.068551 0.056372 0.005109 0.023576 -0.13352 -0.016216 0.020409 -0.0030095 -0.069527 -0.18388 -0.025112 0.054529 0.07983 0.10578 0.16074 0.14645 -0.070044 0.01981 0.017431 0.091946 0.089399 0.10392 0.017591 -0.064436 0.037944 -0.13622 -0.031765 -0.035961 -0.14045 -0.073344 -0.054761 -0.092874 0.041635 -0.053424 -0.043582 -0.044731 -0.17367 0.087357 -0.016221 -0.12738 0.10522 -0.098737 0.15427 -0.10524 0.023809 -0.13018 0.0094588 0.030079 0.13832 -0.053863 0.039904 -0.052601 0.07049 0.094864 -0.076071 -0.037744 -0.066125 -0.03584 0.067773 0.0092914 0.098269 -0.10566 0.10126 0.053486 0.17906 0.072953 0.10909 0.13752 0.075191 -0.12276 -0.14812 0.13716 0.085336 0.16741 0.054268 -0.010375 0.051081 -0.026789 0.13839 -0.042968 -0.21067 0.084915 0.0036795 0.1336 -0.044442 -0.073131 0.14154 0.10046 -0.1815 0.0091468 -0.058696 0.18 -0.047014 -0.20199 -0.0096865 0.10312 -0.07094 0.042333 0.00022212 0.11696 -0.088156 -0.050654 -0.072032 0.086505 0.070101 0.047048 -0.037754 -0.21667 0.041767 0.088674 0.052267 
can -0.12932 0.062615 -0.060089 -0.034583 0.070021 0.09787 0.061982 -0.030644 0.043883 0.078258 0.0070355 0.14787 0.070476 0.08592 -0.15987 -0.028674 0.00050851 -0.069185 0.03421 -0.041358 -0.00070603 0.026493 0.10261 0.12865 -0.033485 -0.058786 0.016922 0.14984 -0.10419 0.063862 -0.027563 0.056366 0.061224 0.10398 0.0014716 -0.083076 0.13164 -0.066604 0.045281 -0.12979 0.14516 0.057655 0.14139 -0.056406 -0.037828 0.0082324 0.078454 0.010648 -0.088621 -0.065359 0.036733 0.20572 -0.024253 0.016632 -0.048158 0.080313 -0.050713 0.0074998 0.031749 0.075668 -0.089531 -0.086157 0.066624 0.096474 -0.1342 -0.046457 -0.0041742 0.36326 0.024653 0.13585 -0.18638 -0.15831 -0.015153 0.0099416 0.075531 0.096433 -0.052521 0.16272 0.17503 -0.13545 -0.11141 0.043013 0.18165 -0.04032 0.020084 0.008964 0.069236 -0.0098651 0.087515 -0.031011 -0.032756 -0.058225 0.12966 -0.036221 -0.01792 -0.00023062 0.14337 0.039515 0.12997 0.04653 0.065768 0.030271 0.12051 0.00091107 0.099299 -0.14015 -0.11427 0.026943 0.044672 0.10406 0.02462 -0.13436 0.016877 0.080621 0.14527 -0.15737 0.08966 -0.069851 -0.24613 0.10765 0.050229 0.18047 0.069832 -0.0058638 -0.2332 -0.041954 0.053191 0.093187 0.13054 0.11353 0.026222 -0.1917 -0.072141 -0.1828 -0.10841 -0.031455 -0.097461 0.011767 -0.15908 -0.036336 -0.20796 0.096511 0.15205 -0.054161 0.18469 -0.077181 0.070943 -0.053441 -0.081311 -0.087583 -0.05626 0.029721 0.17078 0.24339 -0.10841 -0.10162 -0.28223 -0.022019 0.22383 0.06239 0.056865 -0.028581 -0.02775 0.084634 0.044231 0.10577 0.11952 -0.033737 -0.14892 -0.048791 0.031018 0.11269 0.13085 0.024266 -0.052749 -0.027747 -0.0044969 -0.064427 0.15618 -0.015853 -0.18037 -0.28286 0.014918 0.020213 0.12961 0.14443 -0.0070937 -0.18064 -0.025107 0.081042 0.059424 0.00139 0.02248 -0.13814 -0.021904 0.016416 -0.0041912 -0.070385 -0.17804 -0.02033 0.056252 0.080173 0.10178 0.15304 0.15509 -0.074134 0.016089 0.015398 0.094726 0.085019 0.099039 0.0096433 -0.069921 0.035699 -0.13601 -0.031575 -0.032483 -0.13964 -0.068434 -0.051564 -0.094349 0.050757 -0.050776 -0.045236 -0.044502 -0.17893 0.086359 -0.026111 -0.13499 0.11913 -0.099138 0.15146 -0.11276 0.013641 -0.1206 0.0016323 0.030797 0.12693 -0.050203 0.044641 -0.060135 0.066085 0.0882 -0.071608 -0.040724 -0.050428 -0.029514 0.068326 0.00015085 0.1081 -0.10876 0.10083 0.052053 0.18551 0.067908 0.11432 0.14231 0.068114 -0.13292 -0.15464 0.12267 0.087478 0.16387 0.061852 -0.0089368 0.047234 -0.022246 0.12381 -0.046648 -0.19918 0.07838 0.002362 0.12125 -0.023041 -0.066643 0.12807 0.088408 -0.16651 -0.0077462 -0.061997 0.17 -0.047269 -0.18528 -0.0073571 0.091047 -0.061763 0.022917 -0.0063032 0.11171 -0.090568 -0.041986 -0.059952 0.077985 0.062887 0.043068 -0.031947 -0.1903 0.04535 0.078206 0.031411 
and -0.11439 0.060068 -0.052747 -0.041714 0.054574 0.091384 0.071268 -0.029791 0.03964 0.068565 0.017745 0.12045 0.063457 0.079833 -0.13243 -0.02839 -0.0053769 -0.059995 0.040941 -0.042475 -0.0063199 0.022848 0.085031 0.11342 -0.025027 -0.05224 0.021087 0.13502 -0.095919 0.062228 -0.038005 0.039385 0.045591 0.086131 -0.0055765 -0.078774 0.10504 -0.045673 0.044072 -0.13562 0.12484 0.055324 0.13762 -0.043626 -0.035974 0.0060403 0.063471 0.020749 -0.084531 -0.070413 0.034805 0.19262 -0.033136 0.0047437 -0.040471 0.06802 -0.047743 0.013813 0.033897 0.07574 -0.085215 -0.070483 0.05465 0.093001 -0.11389 -0.050421 -0.0073671 0.3254 0.016584 0.12973 -0.17218 -0.14344 -0.021776 0.010884 0.064799 0.083995 -0.037689 0.15794 0.15685 -0.12888 -0.10814 0.040304 0.18103 -0.025786 0.01796 0.013712 0.087867 -0.0015843 0.087839 -0.03624 -0.035477 -0.044968 0.14259 -0.022017 -0.018604 0.0056441 0.14586 0.045721 0.13263 0.057426 0.076525 0.026486 0.12162 -0.0018088 0.10124 -0.14518 -0.12104 0.022629 0.055235 0.11091 0.015008 -0.13624 0.015015 0.072924 0.14646 -0.152 0.091786 -0.053947 -0.25813 0.12418 0.042367 0.18556 0.068884 -0.022725 -0.23636 -0.041274 0.0551 0.09898 0.12388 0.11922 0.041481 -0.19196 -0.062613 -0.18384 -0.10286 -0.024781 -0.11032 -0.00067905 -0.16447 -0.042278 -0.23052 0.10658 0.17387 -0.049751 0.19597 -0.079411 0.074247 -0.056867 -0.086084 -0.082964 -0.066223 0.047959 0.18204 0.24699 -0.1038 -0.10654 -0.29643 -0.021189 0.23323 0.06267 0.061904 -0.052382 -0.022508 0.088782 0.037861 0.10297 0.12688 -0.031992 -0.1474 -0.051191 0.026873 0.12403 0.14231 0.021551 -0.052898 -0.039635 -0.015228 -0.063859 0.1527 -0.01773 -0.19473 -0.29584 0.023582 0.018519 0.13347 0.15273 0.011431 -0.17941 -0.022964 0.065684 0.064412 0.0078516 0.023561 -0.14002 -0.018866 0.02168 -0.008157 -0.066438 -0.18196 -0.019792 0.055532 0.08832 0.1078 0.16868 0.15093 -0.075388 0.027094 0.019406 0.095711 0.092037 0.1042 0.018689 -0.068672 0.03123 -0.14188 -0.037225 -0.040974 -0.13997 -0.074673 -0.052347 -0.09632 0.045084 -0.047999 -0.044165 -0.036631 -0.17902 0.083958 -0.01504 -0.13268 0.10436 -0.097213 0.15962 -0.10545 0.016889 -0.13525 0.0055342 0.028278 0.13985 -0.048851 0.045853 -0.049708 0.074116 0.097578 -0.077749 -0.036936 -0.065114 -0.037203 0.071726 0.0097047 0.097703 -0.10149 0.10277 0.056349 0.17657 0.079782 0.11062 0.14507 0.07428 -0.11709 -0.14779 0.14315 0.082966 0.17035 0.057225 -0.0066243 0.056325 -0.029558 0.13874 -0.043066 -0.20671 0.086294 0.0085118 0.14323 -0.039892 -0.06942 0.13878 0.10848 -0.18374 0.0089773 -0.06151 0.18932 -0.046327 -0.20544 -0.017038 0.10853 -0.077896 0.049646 0.0012278 0.11026 -0.08753 -0.049673 -0.069939 0.085822 0.077775 0.042967 -0.032742 -0.21938 0.046413 0.08642 0.052514 
do -0.13865 0.066578 -0.048148 -0.047194 0.071183 0.11355 0.069609 -0.032716 0.045944 0.072423 0.019177 0.1409 0.07468 0.093052 -0.15861 -0.023078 0.0023793 -0.066246 0.037846 -0.039103 0.0079221 0.01945 0.10417 0.13586 -0.035645 -0.061741 0.02591 0.16134 -0.11087 0.071817 -0.024708 0.062787 0.056774 0.11724 0.0033347 -0.087589 0.13847 -0.074111 0.040078 -0.14061 0.15428 0.042927 0.15041 -0.055406 -0.031695 0.0075959 0.077229 0.017877 -0.091754 -0.066859 0.038268 0.21701 -0.030717 0.0046406 -0.053679 0.074968 -0.060379 0.010267 0.029361 0.081632 -0.086502 -0.087636 0.06597 0.095486 -0.14091 -0.045149 -0.013068 0.36815 0.034423 0.12259 -0.20045 -0.16587 -0.0037878 0.0011741 0.066674 0.097132 -0.059535 0.16752 0.16806 -0.13257 -0.11527 0.045647 0.18154 -0.03365 0.021023 0.022154 0.070597 -0.016058 0.092711 -0.024573 -0.034771 -0.057261 0.1366 -0.030809 -0.016791 -0.012101 0.13223 0.027399 0.13964 0.054538 0.066574 0.024206 0.12484 -0.0038722 0.091452 -0.13523 -0.11285 0.026954 0.043613 0.095436 0.020992 -0.13918 0.019992 0.074934 0.1488 -0.14792 0.090505 -0.056724 -0.24642 0.092758 0.050575 0.17605 0.063071 -0.012563 -0.22209 -0.04007 0.052555 0.083717 0.13089 0.11491 0.032439 -0.20347 -0.073306 -0.17324 -0.11471 -0.031 -0.098372 0.0017474 -0.16265 -0.04213 -0.19698 0.093199 0.14308 -0.042369 0.1818 -0.07812 0.065742 -0.047222 -0.075294 -0.095157 -0.064023 0.031541 0.16465 0.24734 -0.10552 -0.10181 -0.28482 -0.031299 0.21823 0.059858 0.058089 -0.040625 -0.014207 0.089418 0.041441 0.10967 0.12652 -0.042415 -0.15238 -0.048012 0.014054 0.11552 0.12671 0.02724 -0.046432 -0.038447 -0.011072 -0.062741 0.14428 -0.013676 -0.18093 -0.29398 0.026507 0.017977 0.1221 0.14731 -0.0028332 -0.17616 -0.0070564 0.082566 0.064949 -0.0063328 0.019827 -0.14424 -0.021899 0.0058054 -0.012212 -0.068319 -0.18143 -0.0072629 0.060678 0.075948 0.1035 0.15163 0.15539 -0.080392 0.021274 0.011727 0.09572 0.084856 0.11168 0.021563 -0.06563 0.053183 -0.14361 -0.029772 -0.044127 -0.14075 -0.061728 -0.055165 -0.097231 0.05431 -0.055954 -0.043254 -0.038292 -0.17113 0.082057 -0.016104 -0.14059 0.11025 -0.096218 0.14474 -0.11051 0.016418 -0.12454 -0.00048044 0.030836 0.14154 -0.050289 0.041073 -0.052206 0.066566 0.087109 -0.071091 -0.04002 -0.041347 -0.038483 0.068201 -0.0024576 0.10603 -0.10757 0.10165 0.054347 0.18427 0.062661 0.099644 0.14378 0.070781 -0.13129 -0.153 0.12198 0.084428 0.16248 0.054547 -0.0087831 0.031879 -0.0075866 0.11295 -0.047291 -0.17548 0.076703 -0.00083052 0.1141 -0.023087 -0.068965 0.11731 0.086773 -0.15651 -0.0014808 -0.05819 0.16786 -0.037448 -0.17265 -0.0089761 0.088875 -0.078004 0.020454 -0.0083249 0.10921 -0.077719 -0.037204 -0.058874 0.071222 0.070496 0.030712 -0.033173 -0.17489 0.040972 0.076035 0.039215 
it -0.13676 0.073606 -0.054473 -0.050484 0.073507 0.12185 0.087711 -0.031355 0.050581 0.089182 0.027736 0.15535 0.085993 0.097077 -0.16136 -0.034026 -0.0037555 -0.070734 0.049839 -0.045955 0.0037321 0.023489 0.11257 0.14713 -0.031291 -0.058694 0.025757 0.14787 -0.1068 0.074991 -0.032726 0.052451 0.057442 0.10787 -0.0061989 -0.0936 0.1331 -0.064807 0.051492 -0.1433 0.15081 0.058296 0.1538 -0.066294 -0.031983 0.014179 0.073873 0.02709 -0.093265 -0.070826 0.03718 0.22199 -0.032296 0.0046492 -0.042861 0.074766 -0.063275 0.01505 0.032409 0.088322 -0.092232 -0.089777 0.072416 0.095627 -0.13569 -0.051025 -0.012864 0.37709 0.025099 0.13902 -0.2131 -0.16445 -0.011889 0.010108 0.074843 0.10336 -0.044406 0.1767 0.17217 -0.14436 -0.11819 0.041379 0.19623 -0.027997 0.027785 0.017248 0.083796 -0.014105 0.095474 -0.030079 -0.031849 -0.04674 0.14479 -0.028742 -0.025923 -0.0057827 0.13507 0.042578 0.13591 0.062154 0.078923 0.034422 0.11862 -0.0012575 0.10075 -0.14506 -0.12756 0.029724 0.055116 0.10718 0.019836 -0.14008 0.01831 0.088354 0.15315 -0.15787 0.1002 -0.04839 -0.26059 0.11295 0.049558 0.18819 0.066768 -0.01167 -0.22925 -0.046692 0.054285 0.098992 0.13151 0.12305 0.03203 -0.20169 -0.062968 -0.17895 -0.10806 -0.025998 -0.10662 0.0011715 -0.16549 -0.043948 -0.21673 0.10252 0.16012 -0.050263 0.19303 -0.078019 0.064519 -0.052954 -0.077358 -0.092036 -0.065937 0.042796 0.1697 0.25078 -0.10325 -0.10743 -0.29628 -0.026039 0.23283 0.051623 0.059792 -0.04631 -0.017437 0.095127 0.047405 0.11104 0.12627 -0.038204 -0.16339 -0.041949 0.024561 0.12979 0.13572 0.025398 -0.052689 -0.042337 -0.015724 -0.073315 0.15958 -0.017079 -0.1897 -0.29269 0.029094 0.016898 0.13272 0.16073 -0.0032513 -0.18983 -0.013367 0.077292 0.060133 -0.00077713 0.023357 -0.13588 -0.0052368 0.020071 -0.025126 -0.069318 -0.18579 -0.015003 0.055959 0.082828 0.1087 0.17288 0.15459 -0.078035 0.022508 0.011318 0.088744 0.094602 0.10961 0.020257 -0.060921 0.053316 -0.14611 -0.035435 -0.047232 -0.14644 -0.073438 -0.055341 -0.099847 0.051007 -0.046146 -0.035262 -0.037679 -0.17804 0.085278 -0.02164 -0.13319 0.10439 -0.10194 0.16032 -0.11262 0.018049 -0.12805 0.0023146 0.030213 0.13292 -0.045485 0.044477 -0.046444 0.069219 0.093264 -0.078292 -0.045724 -0.056874 -0.033945 0.073684 0.010946 0.095044 -0.10782 0.10054 0.052307 0.17644 0.067024 0.10381 0.14229 0.072827 -0.12306 -0.1408 0.13002 0.08459 0.17145 0.054089 -0.0074286 0.040886 -0.028228 0.13657 -0.046868 -0.20175 0.091893 9.5886e-05 0.13212 -0.035553 -0.072704 0.13732 0.098725 -0.18059 0.013309 -0.065131 0.17258 -0.039032 -0.19204 -0.014914 0.10049 -0.078656 0.04056 0.0041302 0.11637 -0.089308 -0.036866 -0.06933 0.072798 0.070374 0.038532 -0.03277 -0.20075 0.048065 0.087292 0.048435 
my -0.13988 0.070179 -0.057564 -0.046777 0.072774 0.10826 0.084451 -0.032205 0.045733 0.071428 0.022104 0.14228 0.08248 0.091232 -0.16696 -0.031031 0.0029498 -0.062571 0.044619 -0.042597 0.0041372 0.022685 0.1074 0.1452 -0.027849 -0.063648 0.02336 0.15263 -0.10493 0.07246 -0.032911 0.057697 0.058766 0.11487 -0.0033957 -0.093826 0.13914 -0.070357 0.049692 -0.13742 0.16206 0.052248 0.14968 -0.060463 -0.028383 0.0089207 0.076312 0.021499 -0.093388 -0.069969 0.037611 0.21797 -0.02873 0.0065389 -0.053582 0.082084 -0.060754 0.015456 0.030661 0.087674 -0.091095 -0.090736 0.064211 0.092637 -0.13874 -0.047387 -0.018475 0.37907 0.026891 0.1312 -0.20162 -0.1697 -0.0043516 0.0056684 0.073001 0.10431 -0.051544 0.1735 0.17145 -0.13843 -0.11388 0.038694 0.18702 -0.028418 0.024376 0.017073 0.072726 -0.0097424 0.096578 -0.026829 -0.032565 -0.050536 0.1346 -0.033863 -0.026025 -0.0099102 0.12967 0.026718 0.13625 0.046736 0.07602 0.03698 0.1249 -0.0029548 0.09755 -0.14251 -0.1113 0.025783 0.05164 0.10759 0.023372 -0.13203 0.020821 0.08385 0.14652 -0.15327 0.089794 -0.054531 -0.25821 0.099363 0.051073 0.18328 0.06931 -0.0097982 -0.22622 -0.048602 0.047825 0.095255 0.13084 0.11593 0.029513 -0.18961 -0.062216 -0.17961 -0.10402 -0.027217 -0.099436 0.0063488 -0.16304 -0.041519 -0.20219 0.09844 0.14829 -0.047749 0.19254 -0.077442 0.067343 -0.054488 -0.079139 -0.091229 -0.067348 0.03526 0.1743 0.24719 -0.10545 -0.10903 -0.29737 -0.025828 0.22963 0.060273 0.061063 -0.046648 -0.015308 0.096864 0.045684 0.10845 0.1225 -0.035423 -0.15887 -0.044544 0.023592 0.12478 0.12543 0.023737 -0.054919 -0.033259 -0.012372 -0.070917 0.14913 -0.017544 -0.18461 -0.28915 0.024774 0.023875 0.12369 0.15132 -0.0091154 -0.18315 -0.018194 0.083681 0.056604 -0.0019103 0.024151 -0.13628 -0.013023 0.011707 -0.014296 -0.067054 -0.18334 -0.01565 0.059036 0.076345 0.10823 0.16238 0.15547 -0.082358 0.025877 0.0067355 0.094774 0.091339 0.10841 0.016544 -0.061676 0.047026 -0.14346 -0.029138 -0.047623 -0.15031 -0.070222 -0.056532 -0.10262 0.050786 -0.050832 -0.034878 -0.037355 -0.17437 0.082652 -0.019702 -0.13491 0.11238 -0.092206 0.14927 -0.10992 0.019902 -0.11949 -0.00092968 0.027599 0.1311 -0.047452 0.045459 -0.053779 0.066598 0.085363 -0.072848 -0.037898 -0.044823 -0.033893 0.072111 -0.00187 0.10001 -0.10323 0.096696 0.054893 0.18138 0.063557 0.10377 0.14408 0.063096 -0.12878 -0.14824 0.12635 0.088261 0.16682 0.059411 -0.0048797 0.037912 -0.019443 0.12398 -0.056191 -0.19543 0.087748 0.0043048 0.11743 -0.027408 -0.071776 0.12813 0.095569 -0.16467 -0.00022875 -0.063047 0.17752 -0.041254 -0.18538 -0.013016 0.087605 -0.07837 0.022307 -0.0012271 0.11646 -0.085891 -0.039104 -0.057916 0.081617 0.068541 0.035042 -0.03484 -0.1895 0.041299 0.084995 0.041454 
, -0.12854 0.072383 -0.059855 -0.048309 0.062726 0.10468 0.078085 -0.025314 0.044612 0.077147 0.020093 0.13582 0.071373 0.088069 -0.15252 -0.034376 -0.0086055 -0.067755 0.047206 -0.042006 -0.0024342 0.019166 0.10025 0.13425 -0.025546 -0.057332 0.016633 0.14389 -0.095267 0.06374 -0.033125 0.045421 0.05537 0.1007 -0.0053706 -0.085586 0.12263 -0.058875 0.04686 -0.1348 0.14296 0.060662 0.14229 -0.05871 -0.030306 0.0063341 0.06497 0.020698 -0.086615 -0.069783 0.039395 0.21244 -0.029772 0.0066592 -0.039531 0.072516 -0.060724 0.0083184 0.027972 0.074608 -0.088707 -0.085641 0.062169 0.096334 -0.12444 -0.05486 -0.017414 0.3579 0.021643 0.13338 -0.1859 -0.15326 -0.011861 0.010915 0.069626 0.09591 -0.047032 0.16779 0.15976 -0.13921 -0.11445 0.042177 0.18554 -0.028799 0.021094 0.016732 0.085158 -0.0052187 0.085891 -0.029805 -0.035944 -0.047948 0.13921 -0.028443 -0.020449 0.0003433 0.13561 0.043552 0.1283 0.056629 0.073008 0.03144 0.12221 -0.0047771 0.098611 -0.14641 -0.1143 0.027066 0.053642 0.11418 0.021588 -0.13817 0.015312 0.082621 0.15154 -0.15757 0.095072 -0.056061 -0.26046 0.11609 0.047322 0.1911 0.071607 -0.014146 -0.23351 -0.040758 0.048935 0.098235 0.12755 0.11872 0.034738 -0.19844 -0.066321 -0.18519 -0.10694 -0.021856 -0.10905 0.010909 -0.17289 -0.043048 -0.22146 0.10745 0.1682 -0.053625 0.19911 -0.083822 0.066789 -0.05683 -0.085656 -0.095119 -0.065669 0.041357 0.18879 0.25303 -0.10265 -0.11054 -0.30105 -0.024915 0.23922 0.061636 0.061583 -0.048707 -0.025292 0.088729 0.048212 0.10934 0.12728 -0.030613 -0.15924 -0.047867 0.032938 0.12386 0.1392 0.01669 -0.058346 -0.038743 -0.0085908 -0.073538 0.16329 -0.022101 -0.1913 -0.29249 0.021142 0.016056 0.13528 0.1599 -0.0017054 -0.18806 -0.017438 0.077457 0.061141 0.0023607 0.030195 -0.13937 -0.013102 0.019078 -0.013209 -0.066377 -0.18725 -0.018808 0.060495 0.089107 0.10695 0.16427 0.15083 -0.079573 0.020757 0.017995 0.097746 0.095468 0.10695 0.019257 -0.061357 0.03965 -0.1427 -0.038369 -0.038246 -0.1443 -0.07858 -0.049937 -0.10003 0.048214 -0.04834 -0.036692 -0.036255 -0.18107 0.089824 -0.019781 -0.13689 0.11313 -0.10007 0.16333 -0.12016 0.013948 -0.1304 -0.0009527 0.032943 0.13508 -0.045342 0.047283 -0.053309 0.067235 0.095336 -0.081277 -0.038424 -0.057594 -0.033563 0.071215 0.0010168 0.10128 -0.10129 0.10258 0.06019 0.17938 0.07561 0.11308 0.15014 0.069401 -0.12174 -0.15507 0.14034 0.090229 0.17475 0.059491 -0.0093031 0.052284 -0.032478 0.13856 -0.046323 -0.21053 0.08983 0.0059873 0.14134 -0.037653 -0.070977 0.13948 0.1007 -0.18429 0.0093547 -0.068789 0.18409 -0.043566 -0.20794 -0.012552 0.097113 -0.075634 0.036973 -0.00081836 0.11639 -0.090605 -0.04497 -0.069654 0.080573 0.072944 0.04572 -0.026921 -0.21227 0.044405 0.082869 0.052197 
why -0.12875 0.060428 -0.056032 -0.051421 0.058824 0.10297 0.079908 -0.030966 0.041134 0.072271 0.023104 0.12901 0.072802 0.087025 -0.15851 -0.027842 -0.00079626 -0.066752 0.042519 -0.040376 -0.0030261 0.014981 0.096734 0.13116 -0.026672 -0.060246 0.014724 0.1493 -0.10421 0.0677 -0.035664 0.049579 0.047785 0.1018 -0.0060617 -0.085947 0.12617 -0.056998 0.04385 -0.1416 0.1454 0.053687 0.14869 -0.04909 -0.030506 0.0087046 0.066057 0.020464 -0.089103 -0.069395 0.031221 0.21117 -0.032095 0.0046881 -0.048472 0.073599 -0.056658 0.01457 0.036698 0.086864 -0.086713 -0.08486 0.062705 0.096662 -0.12225 -0.056467 -0.010422 0.35948 0.020535 0.13046 -0.19041 -0.16649 -0.014299 0.011302 0.07148 0.093198 -0.049438 0.1661 0.16249 -0.1325 -0.1175 0.037981 0.18844 -0.025564 0.018985 0.021887 0.085069 -0.0053583 0.09348 -0.035241 -0.032429 -0.050599 0.13723 -0.029691 -0.020942 -0.0073195 0.13345 0.033781 0.13531 0.057871 0.076235 0.032804 0.12371 -0.00074889 0.099295 -0.13972 -0.11515 0.021874 0.050594 0.10822 0.01966 -0.13981 0.020999 0.0733 0.15253 -0.15308 0.092908 -0.04941 -0.25198 0.10842 0.047579 0.18338 0.069737 -0.020168 -0.22997 -0.043721 0.056949 0.092221 0.12202 0.10827 0.040254 -0.19663 -0.06307 -0.17352 -0.10285 -0.021627 -0.10756 0.010051 -0.16684 -0.04773 -0.21186 0.10186 0.16051 -0.046645 0.18907 -0.079986 0.065829 -0.055499 -0.083056 -0.088127 -0.063813 0.041964 0.17592 0.24908 -0.10353 -0.11212 -0.29351 -0.022643 0.22926 0.061906 0.06177 -0.049449 -0.022169 0.089253 0.042787 0.10456 0.12408 -0.032651 -0.14708 -0.048966 0.026842 0.12193 0.13194 0.022829 -0.052357 -0.030643 -0.015664 -0.066199 0.14852 -0.023384 -0.18681 -0.2852 0.023657 0.01832 0.12757 0.14893 -0.003226 -0.18173 -0.017142 0.074136 0.061729 -0.002614 0.024992 -0.13768 -0.022483 0.025112 -0.015352 -0.067087 -0.17802 -0.019865 0.060602 0.085 0.10065 0.16092 0.14555 -0.079546 0.027867 0.015216 0.093901 0.08804 0.11441 0.02074 -0.06414 0.042376 -0.13537 -0.041571 -0.044521 -0.14476 -0.062203 -0.055427 -0.10154 0.046697 -0.054458 -0.043415 -0.039163 -0.17491 0.081646 -0.010476 -0.13875 0.1116 -0.094401 0.15725 -0.11134 0.015393 -0.12405 0.00095146 0.029868 0.13814 -0.048814 0.043698 -0.04919 0.067755 0.090842 -0.073504 -0.031266 -0.051528 -0.03536 0.06867 0.0082143 0.097036 -0.1002 0.099289 0.055583 0.17893 0.067234 0.10619 0.14469 0.07086 -0.11555 -0.14705 0.13444 0.088389 0.16842 0.053429 -0.0048265 0.041905 -0.01701 0.13317 -0.049315 -0.20104 0.085206 0.0039929 0.12966 -0.034086 -0.067996 0.13213 0.10348 -0.17466 0.0059227 -0.061603 0.18241 -0.043898 -0.19478 -0.016885 0.098768 -0.077734 0.033615 0.0029078 0.11419 -0.079175 -0.039896 -0.062455 0.088058 0.072202 0.041746 -0.033399 -0.20642 0.041724 0.083386 0.054293 
with -0.133 0.067897 -0.060482 -0.038443 0.074923 0.10106 0.077417 -0.03402 0.046856 0.079119 0.018342 0.14259 0.078487 0.087428 -0.15789 -0.030725 0.0010731 -0.062283 0.042082 -0.045638 -0.0023887 0.027243 0.10602 0.13661 -0.029192 -0.058805 0.020508 0.14421 -0.10442 0.064769 -0.028519 0.051669 0.057444 0.108 -0.0043864 -0.088578 0.13015 -0.063076 0.051558 -0.13526 0.15177 0.056246 0.14677 -0.06078 -0.036399 0.0085644 0.07709 0.022145 -0.0941 -0.068858 0.042138 0.21302 -0.031603 0.0098757 -0.049842 0.075189 -0.055836 0.010153 0.031504 0.079535 -0.094238 -0.085029 0.065355 0.099912 -0.13087 -0.046674 -0.012139 0.36527 0.028013 0.13812 -0.19075 -0.15834 -0.01224 0.01267 0.075694 0.09963 -0.04651 0.16847 0.16659 -0.1347 -0.11208 0.036054 0.18323 -0.035547 0.025282 0.010399 0.074591 -0.0074419 0.093867 -0.03346 -0.028648 -0.053249 0.13188 -0.030307 -0.021904 -0.0023234 0.13316 0.039417 0.13107 0.045548 0.074887 0.030196 0.12446 -0.00053175 0.099173 -0.14025 -0.11348 0.021929 0.056291 0.10841 0.023386 -0.13223 0.013838 0.084714 0.14221 -0.15253 0.093389 -0.05794 -0.25419 0.10711 0.052257 0.18381 0.066993 -0.0072051 -0.23096 -0.042188 0.051047 0.093075 0.13128 0.12089 0.028556 -0.18836 -0.067664 -0.18717 -0.10425 -0.029946 -0.10741 0.0059414 -0.16377 -0.036915 -0.21634 0.10449 0.15664 -0.052387 0.19427 -0.078984 0.073093 -0.059594 -0.084649 -0.088191 -0.064907 0.036397 0.178 0.25108 -0.1059 -0.10567 -0.30023 -0.020217 0.22847 0.058567 0.058239 -0.040895 -0.023173 0.088682 0.044318 0.10871 0.1249 -0.035496 -0.15861 -0.044061 0.02746 0.12021 0.13503 0.021888 -0.055549 -0.035787 -0.012204 -0.068799 0.15737 -0.011253 -0.19204 -0.28885 0.022408 0.021078 0.12957 0.14836 -0.00041646 -0.18539 -0.017938 0.073229 0.058182 0.0020875 0.025421 -0.13896 -0.01404 0.018287 -0.0080102 -0.064161 -0.18262 -0.017196 0.05785 0.078618 0.1104 0.16427 0.15024 -0.077387 0.02237 0.014228 0.096322 0.090025 0.098276 0.013372 -0.066008 0.041916 -0.14119 -0.030897 -0.043338 -0.14361 -0.078405 -0.052219 -0.096481 0.045431 -0.047373 -0.039262 -0.039848 -0.18046 0.087982 -0.021985 -0.13205 0.11077 -0.097054 0.15358 -0.11009 0.021262 -0.12614 0.0006277 0.029852 0.13722 -0.049465 0.042093 -0.056518 0.070032 0.088759 -0.074485 -0.041154 -0.05378 -0.033024 0.070033 0.0069926 0.10193 -0.10385 0.096144 0.057614 0.18395 0.067629 0.11017 0.14146 0.065379 -0.12768 -0.14932 0.13019 0.085252 0.16917 0.059733 -0.0084726 0.047663 -0.026683 0.13006 -0.051729 -0.21055 0.091184 0.0026922 0.13034 -0.038874 -0.078006 0.13809 0.099573 -0.17676 0.0025716 -0.06077 0.17839 -0.045243 -0.19759 -0.011443 0.097008 -0.071163 0.032279 0.0011155 0.11756 -0.090882 -0.048905 -0.065034 0.080154 0.066102 0.042817 -0.034137 -0.20723 0.045889 0.084429 0.045675 
make -0.126 0.057352 -0.061276 -0.043718 0.069179 0.10347 0.068498 -0.03158 0.051009 0.074427 0.015599 0.14096 0.074264 0.087422 -0.15585 -0.014278 0.0049521 -0.071477 0.037522 -0.045933 0.0046564 0.022254 0.10358 0.1384 -0.03319 -0.060171 0.015793 0.16317 -0.11139 0.064256 -0.02502 0.057985 0.055613 0.10688 -0.00041299 -0.084304 0.1372 -0.062268 0.042546 -0.14179 0.14654 0.050437 0.14777 -0.052649 -0.033228 0.0062661 0.073435 0.02123 -0.085478 -0.068239 0.036343 0.21059 -0.027402 0.008953 -0.052751 0.071044 -0.050803 0.018188 0.027812 0.083851 -0.087891 -0.089161 0.068189 0.092984 -0.13152 -0.049133 -0.0058856 0.3548 0.027242 0.13165 -0.19173 -0.16284 -0.014725 0.0079017 0.077436 0.096991 -0.05237 0.16164 0.17042 -0.12541 -0.11818 0.041628 0.18004 -0.03093 0.0185 0.016275 0.077327 -0.0088404 0.092857 -0.032489 -0.030954 -0.059589 0.13538 -0.029132 -0.016884 7.3136e-05 0.13796 0.038498 0.13552 0.056542 0.072432 0.028158 0.11743 -0.0031472 0.10084 -0.1439 -0.12175 0.025016 0.045506 0.10264 0.021174 -0.13569 0.019692 0.07492 0.15149 -0.1427 0.087852 -0.066562 -0.23895 0.09301 0.051357 0.17005 0.057035 -0.020134 -0.22625 -0.032969 0.059591 0.084784 0.12666 0.11118 0.033904 -0.18926 -0.065288 -0.17217 -0.10893 -0.025652 -0.10452 0.0068482 -0.15652 -0.043628 -0.20285 0.093571 0.14867 -0.055023 0.17843 -0.076737 0.066393 -0.047104 -0.076012 -0.085836 -0.058179 0.032167 0.16758 0.2439 -0.097913 -0.10241 -0.28297 -0.025308 0.21777 0.060122 0.055962 -0.04428 -0.021634 0.085162 0.041473 0.099808 0.12667 -0.040705 -0.15137 -0.047128 0.026657 0.12026 0.1305 0.03163 -0.044745 -0.032617 -0.0093623 -0.062191 0.15306 -0.021076 -0.18791 -0.29529 0.023981 0.017294 0.12502 0.14872 -0.00056449 -0.17658 -0.018491 0.075636 0.058745 -0.003642 0.021574 -0.14064 -0.023541 0.019577 -0.0052593 -0.065304 -0.18194 -0.0061539 0.052495 0.075166 0.10768 0.15919 0.15043 -0.075867 0.015326 0.015601 0.094151 0.083004 0.10493 0.01627 -0.069162 0.043503 -0.13522 -0.031714 -0.035622 -0.14028 -0.057932 -0.058039 -0.098623 0.045295 -0.051899 -0.038554 -0.052873 -0.18089 0.08417 -0.020175 -0.13475 0.11351 -0.095754 0.14747 -0.11031 0.017468 -0.12803 0.0040153 0.035683 0.14032 -0.047163 0.041876 -0.057358 0.062776 0.090032 -0.071712 -0.034414 -0.040897 -0.034544 0.061898 0.00094703 0.10615 -0.10692 0.096879 0.049872 0.18551 0.06573 0.11002 0.13974 0.072091 -0.12595 -0.14663 0.11726 0.083376 0.15663 0.059568 -0.0020945 0.041915 -0.018483 0.11992 -0.050761 -0.19169 0.080209 -0.0051625 0.12101 -0.022629 -0.064012 0.13547 0.091181 -0.17246 -0.002884 -0.061613 0.16871 -0.038417 -0.18295 -0.008667 0.095269 -0.067393 0.031941 -0.003478 0.1157 -0.079074 -0.040875 -0.06523 0.078808 0.062898 0.042312 -0.037538 -0.19661 0.047754 0.076944 0.038617 
does -0.12606 0.058223 -0.049683 -0.046116 0.059909 0.098874 0.076461 -0.032954 0.039069 0.070474 0.024367 0.12519 0.065624 0.089396 -0.14947 -0.023883 -0.00278 -0.062148 0.038438 -0.040489 -0.0043433 0.016498 0.093249 0.12601 -0.028914 -0.063448 0.017904 0.15553 -0.10613 0.065609 -0.033126 0.046938 0.052198 0.10326 -0.0043555 -0.083827 0.11675 -0.054649 0.040434 -0.13527 0.13551 0.045879 0.14516 -0.040933 -0.029057 0.0083309 0.062368 0.020921 -0.088318 -0.068677 0.034011 0.20208 -0.03059 0.0044761 -0.041737 0.065929 -0.053975 0.010687 0.029423 0.082378 -0.079065 -0.084306 0.062002 0.090692 -0.11502 -0.053682 -0.012701 0.33909 0.020331 0.12262 -0.18168 -0.15413 -0.010942 0.0073324 0.066771 0.089234 -0.045377 0.15314 0.15153 -0.12381 -0.1094 0.043766 0.17914 -0.022805 0.016344 0.02117 0.086704 -0.0059977 0.08912 -0.033188 -0.034421 -0.04722 0.13854 -0.023707 -0.018086 -0.0014475 0.13734 0.034707 0.1413 0.063889 0.073366 0.025762 0.12115 -0.0049599 0.094698 -0.14175 -0.11676 0.021848 0.048991 0.10663 0.013787 -0.13666 0.024617 0.068041 0.14853 -0.14776 0.090925 -0.049676 -0.25098 0.10729 0.043143 0.18036 0.065008 -0.021263 -0.2264 -0.042273 0.056403 0.095312 0.11816 0.11179 0.044092 -0.19643 -0.063582 -0.17727 -0.10258 -0.023141 -0.11093 0.0053898 -0.16805 -0.046113 -0.21353 0.1028 0.16045 -0.04472 0.18703 -0.07851 0.073345 -0.051867 -0.085486 -0.08653 -0.068501 0.040969 0.17551 0.24382 -0.10738 -0.11031 -0.29427 -0.028038 0.22613 0.065194 0.060925 -0.052691 -0.017432 0.090903 0.039807 0.10888 0.12762 -0.038025 -0.1494 -0.05207 0.020935 0.11932 0.13535 0.023877 -0.047231 -0.029917 -0.019459 -0.060217 0.14551 -0.022072 -0.19503 -0.30288 0.027743 0.014508 0.12754 0.14912 0.0065805 -0.1802 -0.015647 0.077519 0.067684 0.0050061 0.02259 -0.13864 -0.023075 0.017697 -0.008837 -0.066957 -0.18722 -0.017117 0.059316 0.080985 0.10719 0.16307 0.1511 -0.082187 0.029149 0.017529 0.09826 0.093426 0.11139 0.026383 -0.071076 0.041892 -0.14381 -0.03782 -0.046547 -0.14707 -0.06877 -0.055349 -0.099637 0.048421 -0.059997 -0.046362 -0.034339 -0.17664 0.081679 -0.01012 -0.14435 0.1085 -0.098443 0.15494 -0.11214 0.021866 -0.12931 0.0054074 0.028207 0.14733 -0.044899 0.04808 -0.052539 0.067906 0.09921 -0.072151 -0.035249 -0.05889 -0.039414 0.07359 1.8216e-05 0.098489 -0.1036 0.10381 0.060122 0.17952 0.074672 0.10896 0.15084 0.075443 -0.12102 -0.15186 0.13803 0.086302 0.17212 0.053425 -0.0043903 0.045243 -0.013629 0.13283 -0.050079 -0.20243 0.088952 0.0057138 0.13461 -0.033148 -0.07294 0.13955 0.11315 -0.17626 0.010624 -0.062567 0.19386 -0.048637 -0.20398 -0.016017 0.10646 -0.084769 0.036895 -0.0039879 0.11876 -0.080069 -0.042618 -0.068708 0.089343 0.078973 0.039393 -0.040951 -0.20804 0.043928 0.084592 0.059121 
' -0.12382 0.059108 -0.037264 -0.039933 0.041527 0.10295 0.084924 -0.031116 0.027075 0.047869 0.031148 0.10414 0.058654 0.083666 -0.13617 -0.015185 0.0036203 -0.067812 0.043578 -0.039642 -0.0010042 0.00017023 0.083141 0.11794 -0.030473 -0.061386 0.0083107 0.14478 -0.10573 0.060106 -0.037491 0.034473 0.03729 0.090465 -0.0058896 -0.0871 0.10443 -0.038634 0.038833 -0.13561 0.13267 0.042726 0.14571 -0.021335 -0.034877 0.012895 0.05693 0.018649 -0.074379 -0.06089 0.022551 0.19329 -0.021699 0.0017349 -0.041373 0.062155 -0.062475 0.021452 0.038062 0.10316 -0.063086 -0.071932 0.064582 0.073489 -0.11877 -0.05578 -0.011153 0.33059 0.013607 0.11719 -0.17902 -0.15473 -0.013379 0.0059485 0.067113 0.07389 -0.029756 0.15576 0.14781 -0.13881 -0.10754 0.050936 0.18714 -0.015931 0.0064639 0.03449 0.10116 0.0016006 0.092924 -0.031212 -0.038505 -0.035071 0.15164 -0.025833 -0.038876 -0.013533 0.13346 0.025796 0.14895 0.082692 0.078961 0.032394 0.12257 -0.0025901 0.095163 -0.12795 -0.11554 0.017261 0.055274 0.091777 0.0038395 -0.1477 0.030866 0.067668 0.16044 -0.14192 0.097085 -0.036814 -0.26159 0.1033 0.039255 0.1927 0.078643 -0.047906 -0.22295 -0.058423 0.058928 0.10159 0.10949 0.10246 0.060162 -0.20815 -0.05312 -0.16902 -0.092339 -0.024178 -0.11679 0.0010986 -0.16742 -0.051994 -0.21515 0.099642 0.16825 -0.036124 0.19844 -0.087504 0.07019 -0.051447 -0.087618 -0.090571 -0.076926 0.050833 0.17235 0.2578 -0.1141 -0.12125 -0.29714 -0.024751 0.23946 0.074678 0.065 -0.067761 -0.010186 0.095192 0.03392 0.11182 0.12535 -0.04065 -0.14807 -0.05915 0.016124 0.13073 0.13565 0.027926 -0.051348 -0.022563 -0.03405 -0.055676 0.14546 -0.033009 -0.20324 -0.32232 0.032855 0.02287 0.12284 0.16489 0.0020757 -0.18559 -0.024998 0.082189 0.058649 0.011831 0.022528 -0.13708 -0.036667 0.026655 -0.021116 -0.078759 -0.19245 -0.02527 0.069735 0.086897 0.11949 0.16699 0.15866 -0.087984 0.047043 0.015282 0.086516 0.09147 0.13299 0.044312 -0.06988 0.046044 -0.14949 -0.040775 -0.059977 -0.14852 -0.056813 -0.063676 -0.10924 0.06514 -0.067934 -0.04983 -0.024128 -0.17333 0.083136 -0.001298 -0.15715 0.10884 -0.10179 0.16667 -0.10623 0.016123 -0.12386 -0.0016111 0.028116 0.14315 -0.045443 0.055154 -0.052413 0.076061 0.11115 -0.078924 -0.017547 -0.06178 -0.0408 0.085046 -0.00043062 0.092294 -0.10561 0.11934 0.05649 0.18569 0.07727 0.10455 0.14773 0.071838 -0.12122 -0.14629 0.16411 0.093309 0.18148 0.046116 0.0014668 0.046463 -0.012369 0.13689 -0.047336 -0.20264 0.099322 0.025323 0.15093 -0.021359 -0.060145 0.1385 0.13148 -0.17779 0.014045 -0.065087 0.21696 -0.053059 -0.21416 -0.025977 0.1163 -0.099302 0.042155 -0.0020106 0.11362 -0.061598 -0.044777 -0.068263 0.10833 0.095204 0.033375 -0.05421 -0.22543 0.044296 0.081878 0.075266 
are -0.1132 0.061273 -0.04916 -0.044336 0.052873 0.10592 0.075258 -0.024067 0.038817 0.067308 0.023752 0.12755 0.061316 0.082504 -0.13583 -0.026634 -0.0050486 -0.060471 0.043814 -0.037426 -0.0033506 0.025145 0.090749 0.12089 -0.023664 -0.05252 0.021128 0.13411 -0.10048 0.057443 -0.034414 0.039098 0.044437 0.087321 -0.0070685 -0.082232 0.10123 -0.044639 0.042613 -0.13413 0.12755 0.053544 0.13857 -0.04802 -0.041018 0.0077544 0.065679 0.01905 -0.086603 -0.062611 0.028072 0.18792 -0.028247 0.0097611 -0.034371 0.068751 -0.047752 0.01586 0.029733 0.079888 -0.083364 -0.076409 0.058072 0.0889 -0.11651 -0.047379 -0.0037987 0.32346 0.017132 0.1278 -0.17986 -0.13719 -0.015779 0.0036478 0.058138 0.082871 -0.03405 0.14835 0.1577 -0.13084 -0.10744 0.044079 0.18264 -0.025184 0.019919 0.011857 0.089958 -0.0048284 0.086583 -0.032876 -0.037401 -0.045913 0.14314 -0.020201 -0.024405 0.0044461 0.14491 0.050305 0.13753 0.058646 0.078894 0.023004 0.11078 -0.00049104 0.096286 -0.13678 -0.12321 0.017123 0.054006 0.10751 0.013051 -0.13411 0.015662 0.072892 0.15072 -0.15292 0.091236 -0.049499 -0.26188 0.12447 0.041576 0.18395 0.066417 -0.023893 -0.23459 -0.042679 0.05181 0.096273 0.11921 0.11726 0.043216 -0.2007 -0.060682 -0.17922 -0.1037 -0.024533 -0.10599 -0.0012841 -0.16354 -0.042134 -0.22483 0.10661 0.16633 -0.050683 0.20052 -0.078566 0.075297 -0.051739 -0.082505 -0.086929 -0.070194 0.043928 0.17179 0.24323 -0.10344 -0.10845 -0.28892 -0.020416 0.22804 0.066126 0.060747 -0.054825 -0.022423 0.094079 0.038817 0.10936 0.12239 -0.032553 -0.15011 -0.055085 0.021628 0.12471 0.14317 0.020319 -0.053331 -0.036719 -0.019426 -0.062086 0.15485 -0.016366 -0.1926 -0.30238 0.025031 0.017163 0.13441 0.15624 0.008892 -0.18347 -0.02972 0.07252 0.060518 0.011923 0.022431 -0.13905 -0.017168 0.020076 -0.012555 -0.06757 -0.18847 -0.023834 0.052743 0.087629 0.10977 0.1704 0.15447 -0.073092 0.026192 0.017623 0.090082 0.08991 0.10443 0.023745 -0.06124 0.035973 -0.14636 -0.034971 -0.046061 -0.14602 -0.071435 -0.0534 -0.099041 0.056546 -0.049805 -0.040545 -0.03227 -0.17612 0.082578 -0.016925 -0.13966 0.10267 -0.097011 0.16381 -0.11193 0.016856 -0.13152 0.01067 0.027004 0.13351 -0.046112 0.044824 -0.045865 0.077898 0.1022 -0.076691 -0.039957 -0.063385 -0.03933 0.069134 0.00061798 0.094638 -0.10341 0.10522 0.054156 0.17524 0.0823 0.1062 0.14461 0.076228 -0.11754 -0.14607 0.14194 0.085677 0.17274 0.050052 -0.009364 0.052817 -0.028726 0.13736 -0.041809 -0.20712 0.091112 0.011617 0.13782 -0.037681 -0.071369 0.14056 0.10958 -0.17762 0.01201 -0.065635 0.19052 -0.045283 -0.20312 -0.01453 0.10621 -0.080867 0.05017 -7.7247e-05 0.11382 -0.08783 -0.041828 -0.069577 0.084549 0.080995 0.044952 -0.03754 -0.21326 0.047259 0.087049 0.051643 
when -0.12901 0.066341 -0.053893 -0.043417 0.066839 0.10433 0.07452 -0.030308 0.04007 0.076241 0.020221 0.13298 0.074645 0.091783 -0.15259 -0.032201 -0.0036441 -0.062766 0.042462 -0.04107 -0.0019324 0.02271 0.09965 0.13303 -0.032076 -0.061168 0.020234 0.14419 -0.1046 0.070084 -0.035904 0.049519 0.052358 0.10327 -0.007009 -0.086576 0.124 -0.061949 0.046823 -0.13797 0.14668 0.054324 0.14619 -0.057998 -0.036458 0.011047 0.071713 0.02154 -0.092541 -0.070659 0.034818 0.21018 -0.034088 0.0055386 -0.046726 0.072057 -0.058572 0.011499 0.031547 0.081296 -0.088918 -0.081199 0.062629 0.098324 -0.12621 -0.0496 -0.013485 0.3596 0.027154 0.13542 -0.19138 -0.16041 -0.011303 0.0092995 0.070655 0.092939 -0.046659 0.16748 0.16427 -0.13415 -0.11344 0.038167 0.18388 -0.029451 0.023312 0.018278 0.086327 -0.0071875 0.089715 -0.033991 -0.034314 -0.048524 0.13561 -0.030785 -0.021086 -0.0057458 0.13532 0.039772 0.13012 0.053868 0.077643 0.028864 0.12274 -0.0014693 0.098635 -0.14067 -0.11655 0.022298 0.051824 0.10421 0.020051 -0.13779 0.015754 0.079025 0.14733 -0.15316 0.095208 -0.049868 -0.2551 0.11014 0.049249 0.18376 0.06825 -0.01442 -0.22982 -0.043913 0.050193 0.094292 0.1236 0.11482 0.035332 -0.19726 -0.062439 -0.17867 -0.10457 -0.026161 -0.1069 0.0034658 -0.16325 -0.04286 -0.21177 0.10241 0.15833 -0.047358 0.1916 -0.079986 0.066476 -0.05517 -0.080395 -0.089904 -0.065231 0.04239 0.17545 0.25238 -0.10395 -0.10951 -0.29778 -0.023688 0.23129 0.060819 0.061931 -0.043662 -0.021748 0.090987 0.0418 0.10905 0.12533 -0.032824 -0.15633 -0.044392 0.023894 0.1209 0.13835 0.022734 -0.054037 -0.034829 -0.015884 -0.065837 0.15373 -0.017104 -0.18847 -0.28763 0.021048 0.019023 0.12976 0.14871 0.0013041 -0.18064 -0.017408 0.074384 0.06316 0.001444 0.023265 -0.13743 -0.014181 0.020222 -0.014829 -0.065123 -0.17874 -0.018052 0.058827 0.082142 0.10451 0.16099 0.14975 -0.076054 0.025904 0.018884 0.096989 0.09172 0.10478 0.020748 -0.062583 0.044151 -0.14316 -0.034048 -0.045577 -0.14259 -0.070491 -0.051927 -0.097955 0.051179 -0.048681 -0.040676 -0.037095 -0.17647 0.085918 -0.01733 -0.13541 0.10714 -0.099097 0.15436 -0.10807 0.01748 -0.12767 0.00012321 0.024317 0.13714 -0.045975 0.042411 -0.049038 0.069023 0.09247 -0.073668 -0.039607 -0.055597 -0.032768 0.068072 0.0071239 0.097146 -0.10361 0.098966 0.055522 0.17893 0.070491 0.10662 0.14476 0.071813 -0.12031 -0.14372 0.13306 0.088106 0.17127 0.055415 -0.008761 0.045787 -0.022491 0.13024 -0.045687 -0.195 0.087847 0.0020099 0.13105 -0.03485 -0.074362 0.131 0.099831 -0.17059 0.008765 -0.060182 0.17897 -0.042445 -0.1942 -0.013547 0.099926 -0.076215 0.03402 -0.0024104 0.11265 -0.087245 -0.040904 -0.064921 0.079479 0.071671 0.040708 -0.029877 -0.20254 0.042127 0.083807 0.052361 
or -0.12605 0.064522 -0.057737 -0.040026 0.066001 0.099948 0.075757 -0.03281 0.042273 0.078255 0.019654 0.13474 0.072486 0.088018 -0.15625 -0.030209 -0.0038907 -0.065362 0.043448 -0.044512 -0.0021347 0.022007 0.10174 0.1318 -0.028774 -0.053294 0.019521 0.14327 -0.10221 0.065607 -0.031309 0.049393 0.055222 0.099774 -0.0070284 -0.086297 0.12287 -0.055509 0.048909 -0.13523 0.14161 0.054206 0.14706 -0.054692 -0.034004 0.010782 0.072564 0.022066 -0.088584 -0.069971 0.043168 0.20961 -0.031348 0.0086548 -0.046982 0.071835 -0.057914 0.011577 0.029806 0.082713 -0.086123 -0.083634 0.064048 0.098469 -0.12236 -0.052823 -0.0079308 0.35637 0.024199 0.13728 -0.18594 -0.15669 -0.015171 0.013472 0.074846 0.095659 -0.044453 0.16312 0.16179 -0.13503 -0.11313 0.0397 0.18414 -0.031833 0.02496 0.011036 0.081972 -0.0068979 0.089804 -0.034478 -0.03144 -0.052688 0.13609 -0.028161 -0.02022 0.0028148 0.14055 0.042326 0.12846 0.056421 0.072877 0.028744 0.11848 0.00038077 0.098812 -0.14377 -0.11678 0.023583 0.0551 0.11036 0.024255 -0.13498 0.016149 0.081033 0.14755 -0.15154 0.092931 -0.059436 -0.2538 0.11298 0.051692 0.1836 0.066814 -0.01813 -0.23257 -0.037899 0.058988 0.095911 0.12433 0.1191 0.034917 -0.19231 -0.068247 -0.18416 -0.10192 -0.024668 -0.10872 0.0057539 -0.16572 -0.040107 -0.22011 0.10387 0.16181 -0.055122 0.19048 -0.079807 0.069715 -0.05572 -0.085194 -0.085626 -0.063027 0.042447 0.18117 0.24993 -0.10351 -0.10714 -0.29472 -0.022412 0.23465 0.062276 0.058982 -0.041939 -0.022478 0.084918 0.042744 0.10804 0.12785 -0.034462 -0.15839 -0.044827 0.026407 0.11901 0.13679 0.023134 -0.048597 -0.033649 -0.01333 -0.068642 0.15407 -0.020961 -0.18934 -0.28851 0.017986 0.016128 0.13293 0.14974 0.0036035 -0.18412 -0.01689 0.072368 0.061076 0.0021892 0.024834 -0.13791 -0.013647 0.02336 -0.0070866 -0.065236 -0.18197 -0.018204 0.051602 0.08473 0.10337 0.16344 0.14673 -0.072835 0.021171 0.018309 0.092655 0.094706 0.10574 0.01521 -0.067988 0.041305 -0.14156 -0.032336 -0.040121 -0.13967 -0.075801 -0.052835 -0.097648 0.047516 -0.048507 -0.038702 -0.037377 -0.17606 0.085095 -0.020273 -0.13387 0.10722 -0.097468 0.15506 -0.11201 0.017786 -0.12597 0.0029555 0.031545 0.13888 -0.048464 0.042484 -0.053945 0.06866 0.091153 -0.074979 -0.040324 -0.056874 -0.03415 0.068624 0.0051617 0.097898 -0.099959 0.098086 0.057202 0.17934 0.069818 0.10858 0.1435 0.074178 -0.12361 -0.14997 0.13123 0.082185 0.16819 0.054195 -0.0072151 0.050058 -0.025972 0.12905 -0.045707 -0.20284 0.085631 0.00254 0.13158 -0.037296 -0.07204 0.13757 0.098203 -0.17343 0.0066709 -0.059958 0.17187 -0.040648 -0.19486 -0.01096 0.09956 -0.071372 0.033081 -0.00011594 0.11772 -0.088042 -0.042432 -0.067007 0.079787 0.067451 0.042706 -0.031451 -0.20488 0.047087 0.08628 0.050182 
be -0.1227 0.066667 -0.053485 -0.04137 0.065004 0.10693 0.074571 -0.030952 0.038754 0.080759 0.026399 0.13446 0.075423 0.09214 -0.14939 -0.028738 -0.00059551 -0.068202 0.043195 -0.046877 -0.0050802 0.020768 0.10195 0.12751 -0.029725 -0.055685 0.023102 0.14663 -0.10266 0.066016 -0.029832 0.048541 0.053626 0.097248 -0.009423 -0.083587 0.1209 -0.049575 0.048264 -0.1385 0.14224 0.049878 0.14657 -0.057169 -0.03048 0.01516 0.066839 0.032855 -0.085112 -0.065735 0.034251 0.20372 -0.037101 0.010507 -0.037768 0.065418 -0.057303 0.01745 0.031423 0.080922 -0.09237 -0.081719 0.063247 0.09289 -0.11662 -0.047758 -0.006698 0.35075 0.01899 0.13661 -0.19555 -0.15647 -0.015664 0.0064423 0.073811 0.098079 -0.039051 0.16273 0.15504 -0.13307 -0.11555 0.039143 0.18501 -0.028321 0.021497 0.018561 0.08685 -0.01152 0.09015 -0.034337 -0.029103 -0.049579 0.1464 -0.027045 -0.021207 -0.0063742 0.13901 0.044731 0.13213 0.060022 0.069744 0.0291 0.11628 -0.002274 0.10012 -0.14398 -0.12544 0.02304 0.057979 0.11468 0.021243 -0.13609 0.017001 0.074612 0.15039 -0.14831 0.098123 -0.047998 -0.24872 0.11454 0.04417 0.17839 0.061488 -0.01682 -0.22268 -0.036791 0.053611 0.0916 0.11724 0.11959 0.036295 -0.19108 -0.065182 -0.17436 -0.096395 -0.018423 -0.10653 -0.0022186 -0.1617 -0.03887 -0.21835 0.10652 0.15823 -0.049013 0.18986 -0.073154 0.067188 -0.059314 -0.077664 -0.090181 -0.061976 0.038655 0.16853 0.24428 -0.10003 -0.10618 -0.28914 -0.023067 0.2311 0.060812 0.056243 -0.042908 -0.025344 0.089845 0.047396 0.10583 0.12436 -0.035769 -0.15533 -0.03986 0.026401 0.11904 0.13641 0.021301 -0.05104 -0.046763 -0.018868 -0.068485 0.15674 -0.022221 -0.18692 -0.29025 0.029891 0.0090102 0.12699 0.15497 0.0033307 -0.1842 -0.007934 0.07267 0.063314 -0.0039478 0.019627 -0.13851 0.00045575 0.022989 -0.018788 -0.062151 -0.18027 -0.014436 0.052611 0.080174 0.098365 0.1726 0.14615 -0.072315 0.019164 0.017361 0.093318 0.096588 0.10371 0.02156 -0.066195 0.05006 -0.14077 -0.041135 -0.042609 -0.14041 -0.072068 -0.048635 -0.10029 0.050134 -0.044851 -0.033793 -0.040061 -0.17646 0.086844 -0.023473 -0.13573 0.10507 -0.10176 0.15355 -0.10879 0.016263 -0.12312 0.0085816 0.024685 0.1343 -0.045897 0.042478 -0.045435 0.06461 0.093021 -0.07723 -0.040324 -0.064374 -0.030183 0.065372 0.0077302 0.093125 -0.099147 0.098516 0.058638 0.17163 0.062169 0.10022 0.14371 0.068275 -0.11512 -0.13566 0.1302 0.076852 0.16192 0.051884 -0.011772 0.041652 -0.02117 0.13488 -0.050333 -0.19817 0.087611 -0.0036644 0.12949 -0.037642 -0.076452 0.14004 0.10066 -0.17739 0.0082305 -0.056424 0.17304 -0.042943 -0.19581 -0.012848 0.10444 -0.072841 0.036301 0.0057935 0.12031 -0.084604 -0.036218 -0.072303 0.080495 0.066098 0.03899 -0.02946 -0.20526 0.044234 0.086405 0.052746 
from -0.1345 0.071427 -0.057702 -0.041079 0.081082 0.10736 0.079151 -0.037412 0.050581 0.082573 0.021344 0.15 0.089745 0.092826 -0.16182 -0.027884 0.0014218 -0.060948 0.041077 -0.048042 0.0023245 0.028857 0.10972 0.14701 -0.032517 -0.059753 0.025777 0.15763 -0.1028 0.075436 -0.028328 0.055707 0.060639 0.11419 -0.0036004 -0.089558 0.13725 -0.071846 0.051114 -0.13631 0.16018 0.051145 0.15143 -0.066138 -0.032524 0.0088776 0.077659 0.024474 -0.095571 -0.070205 0.044942 0.21964 -0.038007 0.0080096 -0.055949 0.074245 -0.060248 0.010607 0.02894 0.078722 -0.095588 -0.086634 0.069045 0.098801 -0.13708 -0.046106 -0.015097 0.3793 0.034568 0.13865 -0.20022 -0.16426 -0.0070428 0.0063545 0.077781 0.10549 -0.050423 0.17352 0.16978 -0.13445 -0.1158 0.039922 0.18454 -0.036028 0.028416 0.015116 0.073353 -0.011324 0.088929 -0.03038 -0.025937 -0.052955 0.12785 -0.031625 -0.020817 -0.0027916 0.13083 0.033614 0.12745 0.045707 0.074784 0.031823 0.12174 -0.0039486 0.09895 -0.14065 -0.11523 0.025169 0.051266 0.10657 0.021965 -0.13149 0.017339 0.084977 0.1397 -0.15081 0.094341 -0.052165 -0.25177 0.097091 0.045155 0.1758 0.064664 -0.0080585 -0.22123 -0.041467 0.049199 0.088189 0.12778 0.1232 0.028383 -0.18729 -0.062765 -0.17894 -0.1051 -0.02875 -0.10526 -0.00010591 -0.15917 -0.032254 -0.20585 0.097803 0.15213 -0.047468 0.18824 -0.075345 0.06603 -0.059347 -0.075073 -0.089051 -0.063604 0.035206 0.17326 0.24722 -0.10103 -0.10257 -0.29266 -0.023335 0.22299 0.054448 0.06074 -0.038447 -0.017968 0.091789 0.047373 0.10245 0.1211 -0.035616 -0.16235 -0.039534 0.028348 0.11832 0.12988 0.023501 -0.05483 -0.044874 -0.0086656 -0.068194 0.15252 -0.016464 -0.18753 -0.28174 0.029452 0.022633 0.13051 0.14892 -0.0047201 -0.18227 -0.0089731 0.07701 0.05969 -0.0037959 0.024002 -0.13701 -0.011838 0.017813 -0.013313 -0.060312 -0.18097 -0.013791 0.057337 0.071616 0.10525 0.15808 0.14755 -0.078003 0.023242 0.011479 0.093176 0.091057 0.10067 0.016429 -0.063657 0.044292 -0.1472 -0.026622 -0.040545 -0.14152 -0.077154 -0.049094 -0.0911 0.042302 -0.045217 -0.035163 -0.039338 -0.17463 0.082694 -0.025128 -0.1262 0.10559 -0.095442 0.14704 -0.10431 0.020612 -0.12128 -0.0014307 0.028507 0.13791 -0.046926 0.04102 -0.053199 0.066859 0.084936 -0.070126 -0.04048 -0.048542 -0.030754 0.070839 0.00093279 0.094737 -0.10135 0.094477 0.057132 0.17478 0.065918 0.10462 0.13812 0.06532 -0.12976 -0.14356 0.11708 0.087893 0.16085 0.059612 -0.0086317 0.044295 -0.021038 0.12104 -0.051239 -0.19116 0.08734 -0.0046617 0.11914 -0.034206 -0.075112 0.13131 0.086879 -0.16591 0.0019955 -0.057243 0.17012 -0.040083 -0.18594 -0.007512 0.093481 -0.070403 0.02979 0.0010931 0.11277 -0.089217 -0.04392 -0.061004 0.07456 0.066302 0.034492 -0.0294 -0.18964 0.044098 0.085799 0.040807 
cooking -0.14773 0.085727 -0.067347 -0.035611 0.1098 0.090167 0.075195 -0.046631 0.043996 0.092779 0.019716 0.16282 0.097491 0.1039 -0.16896 -0.047664 0.0122 -0.041628 0.038439 -0.062903 -0.0068258 0.067015 0.1301 0.15119 -0.04609 -0.064726 0.043473 0.16353 -0.11228 0.089802 -0.035277 0.070403 0.07106 0.12843 -0.0048075 -0.10215 0.13939 -0.093173 0.065539 -0.12142 0.16913 0.045835 0.13449 -0.088834 -0.048359 0.010478 0.10877 0.025427 -0.11658 -0.085582 0.07464 0.22093 -0.054722 0.015319 -0.065255 0.083759 -0.046446 -0.0066476 0.031825 0.068495 -0.11381 -0.077199 0.058128 0.10863 -0.14407 -0.031631 -0.026907 0.39688 0.041693 0.15285 -0.1915 -0.14997 0.0069771 0.0087298 0.085208 0.1241 -0.050178 0.18703 0.17086 -0.12064 -0.10312 0.029621 0.17759 -0.046239 0.046185 0.0021525 0.06047 -0.024486 0.089677 -0.033542 -0.015495 -0.051818 0.10959 -0.038834 -0.029591 -0.0056412 0.12451 0.031228 0.13156 0.0024919 0.083494 0.028569 0.1377 -0.0017754 0.10323 -0.14355 -0.11123 0.020259 0.04884 0.1072 0.031767 -0.10577 0.011398 0.096534 0.11617 -0.15727 0.10556 -0.053241 -0.26886 0.1079 0.060856 0.19793 0.056133 0.02948 -0.24311 -0.042931 0.036675 0.094444 0.14767 0.1435 0.00018218 -0.15763 -0.069286 -0.2086 -0.10844 -0.049051 -0.11482 -0.0049277 -0.15451 -0.0093577 -0.20402 0.11441 0.1423 -0.051795 0.21276 -0.068298 0.083257 -0.07173 -0.094233 -0.087553 -0.0721 0.040115 0.17103 0.24738 -0.10371 -0.085023 -0.30527 -0.0076677 0.21548 0.05868 0.056899 -0.018372 -0.0075435 0.096373 0.056428 0.10658 0.11121 -0.047422 -0.17408 -0.026305 0.022666 0.11119 0.13586 0.024477 -0.066444 -0.048482 0.002968 -0.072055 0.1647 0.017443 -0.19318 -0.27227 0.039662 0.030134 0.12998 0.12222 -0.011277 -0.18925 -0.00303 0.07076 0.070503 0.00050427 0.019667 -0.13457 0.0017938 0.0057254 0.0027806 -0.052672 -0.17114 -0.024954 0.055372 0.052692 0.11715 0.16052 0.1476 -0.078482 0.025787 -0.0047771 0.095713 0.093 0.073602 0.0066679 -0.066233 0.040809 -0.16324 -0.013701 -0.066588 -0.14654 -0.1168 -0.04415 -0.072201 0.020922 -0.027716 -0.033931 -0.027878 -0.17801 0.085831 -0.027233 -0.09642 0.1007 -0.094362 0.13004 -0.092925 0.041143 -0.1282 -0.0030265 0.017667 0.1383 -0.059264 0.036432 -0.049892 0.082516 0.07231 -0.05365 -0.062403 -0.060693 -0.030832 0.078522 0.0078017 0.094273 -0.087882 0.080994 0.068748 0.17523 0.060023 0.10439 0.13873 0.061042 -0.13497 -0.14286 0.10361 0.082749 0.16055 0.064987 -0.0089103 0.054573 -0.024551 0.11768 -0.05203 -0.20361 0.095288 -0.0098094 0.10427 -0.064279 -0.11266 0.12511 0.081934 -0.14347 0.012696 -0.038094 0.15558 -0.045519 -0.18664 -0.012193 0.087201 -0.072894 0.024589 -0.00014841 0.10751 -0.10578 -0.054643 -0.051722 0.056754 0.053032 0.029518 -0.028381 -0.19126 0.038918 0.10297 0.04279 
use -0.12913 0.063738 -0.063865 -0.036635 0.067556 0.10047 0.070211 -0.031673 0.040046 0.077898 0.014059 0.14238 0.068348 0.085773 -0.15535 -0.028523 -0.0001112 -0.0729 0.041042 -0.046979 -0.010758 0.027009 0.10203 0.12893 -0.03426 -0.059665 0.020512 0.15167 -0.10599 0.064183 -0.030837 0.048257 0.0617 0.098526 -0.0079635 -0.086069 0.12135 -0.054123 0.046292 -0.1394 0.13858 0.056316 0.14628 -0.055368 -0.038686 0.010097 0.072174 0.017763 -0.09207 -0.066906 0.03809 0.20401 -0.027379 0.011868 -0.044059 0.074754 -0.048276 0.011081 0.034396 0.082109 -0.088801 -0.083256 0.066218 0.099132 -0.12332 -0.047205 -0.0021301 0.35381 0.021043 0.13846 -0.18491 -0.15614 -0.020562 0.01289 0.075728 0.092834 -0.04973 0.16271 0.16841 -0.12695 -0.11231 0.042724 0.18129 -0.032322 0.01901 0.01174 0.081595 -0.0088815 0.091827 -0.033779 -0.031716 -0.059407 0.14061 -0.028467 -0.018402 0.0023793 0.14659 0.045915 0.13238 0.052475 0.07526 0.026887 0.11782 0.00013197 0.10303 -0.14643 -0.12438 0.02383 0.055062 0.11318 0.020706 -0.13914 0.015824 0.07725 0.15175 -0.15463 0.092089 -0.061558 -0.25188 0.11417 0.04831 0.18207 0.068157 -0.016159 -0.23816 -0.037489 0.055479 0.094859 0.12456 0.11549 0.031313 -0.192 -0.065745 -0.18444 -0.10375 -0.02878 -0.10536 0.0074312 -0.16271 -0.038774 -0.22088 0.10065 0.15781 -0.056121 0.18961 -0.07943 0.073908 -0.056611 -0.085067 -0.085256 -0.059916 0.038261 0.1699 0.24193 -0.10456 -0.10698 -0.28354 -0.019624 0.21957 0.064013 0.053516 -0.037715 -0.027213 0.085363 0.043233 0.10453 0.12239 -0.037385 -0.15092 -0.04287 0.030243 0.11988 0.13654 0.022831 -0.049085 -0.032403 -0.013576 -0.066417 0.15574 -0.016908 -0.18676 -0.28944 0.02003 0.015778 0.13071 0.14681 0.0049696 -0.18352 -0.024921 0.071034 0.05574 0.0053407 0.019474 -0.13976 -0.018926 0.023109 -0.0041505 -0.066554 -0.17969 -0.022301 0.054815 0.083733 0.10583 0.16298 0.14849 -0.070465 0.01889 0.015808 0.095861 0.090968 0.102 0.01553 -0.066036 0.038718 -0.1364 -0.038073 -0.040348 -0.13906 -0.070822 -0.052626 -0.096607 0.045603 -0.05 -0.042489 -0.042045 -0.17539 0.08761 -0.022915 -0.13495 0.11318 -0.099285 0.15475 -0.11274 0.020238 -0.12519 0.0059644 0.029983 0.13362 -0.049611 0.044206 -0.052658 0.068374 0.093349 -0.073775 -0.041628 -0.061992 -0.033364 0.065466 0.0049889 0.10501 -0.10467 0.099936 0.053453 0.18208 0.069442 0.11247 0.14496 0.071463 -0.12705 -0.15255 0.13187 0.083855 0.16441 0.055453 -0.0074033 0.050126 -0.026358 0.12993 -0.048556 -0.2082 0.087352 0.0035751 0.12889 -0.036211 -0.075982 0.13986 0.10055 -0.17514 0.0039761 -0.060062 0.1751 -0.045623 -0.19885 -0.010993 0.1029 -0.070141 0.036432 0.0014577 0.12075 -0.090712 -0.046642 -0.067461 0.082177 0.066454 0.04503 -0.035325 -0.21115 0.047571 0.085527 0.045334 
/ -0.12408 0.060961 -0.060318 -0.039524 0.069972 0.098935 0.071214 -0.029947 0.043649 0.073036 0.018086 0.13607 0.072191 0.086057 -0.1513 -0.027614 0.0042723 -0.062676 0.038833 -0.048653 -0.0029857 0.02595 0.10117 0.1326 -0.034342 -0.061073 0.01921 0.14701 -0.10323 0.064363 -0.033034 0.048519 0.055756 0.10309 -0.0058119 -0.080191 0.12367 -0.057306 0.05011 -0.13222 0.14355 0.051876 0.14492 -0.058677 -0.035423 0.0038019 0.073548 0.016277 -0.086699 -0.06776 0.041529 0.20625 -0.032617 0.0094243 -0.049387 0.068698 -0.051692 0.0070061 0.025688 0.079393 -0.087823 -0.083575 0.061835 0.093608 -0.12535 -0.050754 -0.011401 0.35192 0.024764 0.13324 -0.18412 -0.15477 -0.017446 0.011051 0.077373 0.090731 -0.039139 0.16017 0.16277 -0.12526 -0.1114 0.043837 0.17777 -0.031223 0.022773 0.0094413 0.077599 -0.0080849 0.08821 -0.03342 -0.026565 -0.055104 0.13516 -0.027037 -0.016211 -0.0010342 0.13555 0.042361 0.13253 0.050117 0.073593 0.027254 0.12188 -0.0016822 0.097422 -0.14251 -0.11929 0.02167 0.051688 0.10412 0.02193 -0.13117 0.01441 0.077451 0.14784 -0.1455 0.089505 -0.05928 -0.24617 0.10493 0.048408 0.18348 0.064394 -0.011675 -0.23324 -0.043008 0.054768 0.090276 0.12505 0.11698 0.030847 -0.18551 -0.065999 -0.18326 -0.10701 -0.02838 -0.10815 0.0047815 -0.15917 -0.034578 -0.21842 0.1026 0.15681 -0.052877 0.18896 -0.0752 0.075472 -0.053476 -0.083538 -0.085543 -0.064947 0.037338 0.17746 0.24547 -0.10215 -0.10376 -0.29099 -0.024808 0.22435 0.05922 0.059254 -0.047276 -0.021391 0.087713 0.041556 0.10832 0.12915 -0.033153 -0.15627 -0.046747 0.029194 0.12245 0.13809 0.021272 -0.053745 -0.0378 -0.013974 -0.067505 0.15587 -0.020431 -0.19102 -0.29463 0.022318 0.02091 0.13198 0.14895 0.0037236 -0.18015 -0.015416 0.072858 0.060417 0.0066286 0.022646 -0.14225 -0.013555 0.016086 -0.0073633 -0.060849 -0.18726 -0.021219 0.055733 0.081037 0.11045 0.16149 0.15144 -0.076788 0.01891 0.016267 0.094968 0.091788 0.10124 0.018193 -0.068875 0.040481 -0.14424 -0.030285 -0.039007 -0.14655 -0.076436 -0.053174 -0.092126 0.044012 -0.051086 -0.040284 -0.039937 -0.18157 0.086641 -0.023357 -0.1338 0.11344 -0.098281 0.1546 -0.10896 0.02306 -0.12718 0.0039892 0.027581 0.14064 -0.047918 0.039674 -0.052864 0.069816 0.091934 -0.074455 -0.038015 -0.056108 -0.031239 0.070309 0.0049778 0.098727 -0.10223 0.10157 0.05472 0.1821 0.070343 0.11461 0.14303 0.069713 -0.12685 -0.15028 0.13327 0.085832 0.17324 0.058184 -0.0040981 0.049936 -0.024968 0.1278 -0.04915 -0.20578 0.086138 -0.00021973 0.12994 -0.037931 -0.077752 0.14325 0.10086 -0.17644 0.0058502 -0.061526 0.18189 -0.045854 -0.19636 -0.011711 0.10062 -0.072367 0.03765 -0.00013542 0.11854 -0.092374 -0.045828 -0.069842 0.082706 0.065709 0.043301 -0.034562 -0.20677 0.042645 0.088654 0.053198 
you -0.12903 0.06635 -0.055416 -0.041632 0.069291 0.10928 0.070485 -0.03204 0.0435 0.078583 0.018355 0.14142 0.076689 0.0904 -0.15394 -0.028077 -0.00069991 -0.063275 0.041894 -0.041666 0.0012654 0.021527 0.10237 0.14041 -0.030009 -0.059533 0.026017 0.14927 -0.10343 0.068627 -0.028987 0.058464 0.050846 0.10214 -0.001192 -0.085638 0.12602 -0.064651 0.043594 -0.13287 0.14768 0.051058 0.14451 -0.059277 -0.031196 0.010278 0.072641 0.024996 -0.089612 -0.068313 0.033444 0.20969 -0.032454 0.0061316 -0.048724 0.068805 -0.057423 0.012235 0.030522 0.079564 -0.090119 -0.084938 0.063387 0.095371 -0.12854 -0.044522 -0.01262 0.35433 0.029891 0.13042 -0.19545 -0.15985 -0.0084059 0.0070351 0.067512 0.096578 -0.049333 0.16356 0.16241 -0.13176 -0.11311 0.036322 0.17697 -0.031947 0.022529 0.017236 0.074443 -0.011018 0.085588 -0.030388 -0.031434 -0.048504 0.12955 -0.02953 -0.020328 -0.003639 0.13132 0.035903 0.12771 0.053823 0.072672 0.026217 0.11831 -0.0043127 0.096607 -0.13654 -0.11693 0.024466 0.053249 0.10353 0.021408 -0.13455 0.015506 0.078475 0.1452 -0.14661 0.090059 -0.053501 -0.24732 0.10085 0.047607 0.16994 0.063631 -0.011804 -0.22046 -0.040983 0.048419 0.08734 0.12324 0.11452 0.029348 -0.19122 -0.063814 -0.17103 -0.10151 -0.027476 -0.10029 0.0008832 -0.15762 -0.040935 -0.20207 0.09808 0.14985 -0.048723 0.18419 -0.074636 0.065571 -0.054462 -0.075259 -0.09054 -0.062024 0.034424 0.16643 0.24217 -0.1017 -0.10226 -0.28355 -0.025057 0.2195 0.055241 0.05265 -0.039598 -0.022356 0.087784 0.040032 0.10406 0.12396 -0.034193 -0.15396 -0.039397 0.023192 0.11692 0.12736 0.024999 -0.052233 -0.037944 -0.011986 -0.066613 0.15093 -0.013559 -0.18296 -0.28166 0.025038 0.020413 0.12616 0.15054 -0.0017336 -0.18135 -0.015488 0.075682 0.061992 -0.0026364 0.02354 -0.13744 -0.013007 0.018735 -0.013122 -0.062292 -0.17807 -0.0087758 0.058365 0.079215 0.10521 0.15826 0.15058 -0.074887 0.02216 0.017238 0.09535 0.086341 0.10229 0.015419 -0.05908 0.042831 -0.13918 -0.02964 -0.039372 -0.1398 -0.06662 -0.049922 -0.095892 0.048964 -0.048165 -0.036932 -0.03989 -0.17165 0.085886 -0.020453 -0.13312 0.1063 -0.095148 0.14955 -0.11197 0.016878 -0.12574 0.0018641 0.031695 0.1349 -0.044036 0.043563 -0.051807 0.064789 0.08705 -0.071954 -0.037841 -0.047705 -0.031328 0.068893 0.0042515 0.10372 -0.10248 0.096985 0.053597 0.17601 0.067 0.10085 0.13886 0.065023 -0.12246 -0.14242 0.12276 0.084455 0.16111 0.05638 -0.0096444 0.040178 -0.022627 0.12403 -0.050952 -0.19457 0.083964 0.00083968 0.12665 -0.032157 -0.072277 0.13468 0.090751 -0.17016 0.0078675 -0.06111 0.17221 -0.038715 -0.18785 -0.0082005 0.098299 -0.072604 0.029795 0.00052089 0.11311 -0.091352 -0.040048 -0.061601 0.077642 0.068387 0.037145 -0.033151 -0.19314 0.043361 0.081732 0.041753 
should -0.13562 0.069202 -0.049929 -0.043857 0.070996 0.11189 0.071877 -0.030017 0.040982 0.078106 0.017583 0.14181 0.074773 0.092288 -0.16128 -0.033519 0.00035169 -0.068252 0.039124 -0.041336 0.0055747 0.019521 0.10459 0.13274 -0.03332 -0.057433 0.027989 0.14697 -0.10806 0.067437 -0.025455 0.056147 0.060228 0.11105 -0.00065094 -0.085606 0.12877 -0.06647 0.044128 -0.13531 0.14988 0.049849 0.14953 -0.058936 -0.033242 0.013108 0.078812 0.017696 -0.087832 -0.065545 0.040129 0.21269 -0.03067 0.0072691 -0.044846 0.073933 -0.060674 0.012277 0.029207 0.080131 -0.087222 -0.08491 0.066349 0.093085 -0.13346 -0.047448 -0.013492 0.36613 0.031209 0.12748 -0.20015 -0.16285 -0.0086321 0.010132 0.071597 0.09686 -0.050206 0.16766 0.16611 -0.13599 -0.11424 0.047 0.18281 -0.03057 0.026015 0.01733 0.071523 -0.012859 0.091142 -0.025294 -0.03294 -0.056652 0.13741 -0.032239 -0.01984 -0.010377 0.13449 0.034842 0.13305 0.049128 0.070376 0.027565 0.11823 -0.00099458 0.094871 -0.14042 -0.11304 0.025361 0.053575 0.10218 0.024902 -0.13998 0.017363 0.082485 0.14685 -0.15282 0.094656 -0.056629 -0.25481 0.1061 0.054553 0.18179 0.064392 -0.016211 -0.22808 -0.039076 0.054216 0.093506 0.12664 0.11839 0.027877 -0.20123 -0.067674 -0.18129 -0.10745 -0.029646 -0.10211 0.0041198 -0.16791 -0.038951 -0.20935 0.10135 0.1536 -0.050716 0.1881 -0.077406 0.06635 -0.05098 -0.080806 -0.092864 -0.066349 0.036274 0.16822 0.2439 -0.10104 -0.10672 -0.28878 -0.024684 0.22916 0.06211 0.059788 -0.037782 -0.021494 0.087136 0.045234 0.11228 0.12748 -0.038791 -0.16024 -0.044137 0.021177 0.11915 0.13437 0.022837 -0.048869 -0.035762 -0.016013 -0.068699 0.15675 -0.01648 -0.184 -0.29104 0.022958 0.018433 0.12664 0.15017 0.004433 -0.18458 -0.015413 0.077982 0.064554 -0.0031832 0.02402 -0.14449 -0.0091451 0.012371 -0.0109 -0.066737 -0.17949 -0.015931 0.055906 0.076352 0.10362 0.15819 0.15505 -0.074723 0.020398 0.013232 0.092244 0.090504 0.10687 0.021047 -0.064904 0.049209 -0.14399 -0.030339 -0.043681 -0.1421 -0.071282 -0.054436 -0.096649 0.053729 -0.051898 -0.037092 -0.037256 -0.17253 0.086109 -0.023951 -0.13451 0.11069 -0.10091 0.15235 -0.11163 0.015841 -0.1261 0.001863 0.031307 0.13288 -0.050845 0.041753 -0.050009 0.069094 0.090878 -0.071395 -0.043406 -0.052646 -0.034584 0.066909 0.0017362 0.1015 -0.10705 0.10072 0.054851 0.18507 0.067028 0.10421 0.14903 0.07402 -0.12997 -0.15576 0.13113 0.085653 0.17135 0.056954 -0.010869 0.040393 -0.020839 0.12617 -0.046343 -0.19059 0.082478 5.6663e-05 0.11973 -0.031241 -0.075109 0.12608 0.091371 -0.16426 0.0053443 -0.05809 0.16462 -0.040151 -0.18199 -0.0093766 0.090848 -0.070829 0.025999 -0.0026918 0.11617 -0.084771 -0.039218 -0.068424 0.073176 0.06919 0.038145 -0.029694 -0.18438 0.042104 0.083924 0.042423 
on -0.14252 0.085033 -0.053456 -0.03482 0.074264 0.10854 0.10142 -0.038871 0.041301 0.073523 0.026555 0.14074 0.07461 0.091359 -0.14335 -0.053753 0.0025766 -0.041834 0.060443 -0.039513 -0.00022582 0.040009 0.10519 0.14231 -0.029605 -0.068343 0.026078 0.12719 -0.10483 0.067666 -0.030956 0.040891 0.058702 0.10055 0.0029301 -0.094723 0.11491 -0.068967 0.056487 -0.11657 0.15204 0.068224 0.13707 -0.060731 -0.044538 0.0063873 0.084523 0.0032748 -0.10544 -0.063412 0.049095 0.19486 -0.015875 0.021752 -0.046456 0.10311 -0.051024 6.5804e-05 0.021616 0.074742 -0.083725 -0.083019 0.055469 0.088305 -0.14845 -0.037306 -0.024055 0.37233 0.029676 0.14321 -0.18234 -0.14157 0.0018226 0.0099754 0.073244 0.10285 -0.029568 0.17345 0.1744 -0.15399 -0.084873 0.032069 0.18822 -0.032362 0.022979 -0.0044167 0.062487 -0.0174 0.092751 -0.025005 -0.032899 -0.038607 0.13198 -0.039288 -0.04623 -0.012887 0.13135 0.034161 0.13006 0.018247 0.085654 0.032126 0.11663 0.0049675 0.087318 -0.1303 -0.10381 0.011113 0.052254 0.094256 0.019121 -0.11809 0.01609 0.09872 0.13191 -0.17003 0.0992 -0.037766 -0.26654 0.1189 0.044288 0.19774 0.082957 0.011936 -0.22602 -0.067308 0.033262 0.10954 0.13315 0.12479 0.016203 -0.17828 -0.061876 -0.20111 -0.10168 -0.038795 -0.10183 -0.00060607 -0.15345 -0.031184 -0.20771 0.10463 0.15539 -0.037287 0.22046 -0.080213 0.084355 -0.063411 -0.092297 -0.080987 -0.073557 0.040134 0.17906 0.24939 -0.11495 -0.11063 -0.30741 -0.0095761 0.23475 0.065633 0.066765 -0.048043 -0.011434 0.10259 0.035765 0.11741 0.11371 -0.017851 -0.161 -0.057224 0.027809 0.12654 0.13746 0.013408 -0.074425 -0.030335 -0.010802 -0.063158 0.16084 0.0022626 -0.19754 -0.29711 0.018496 0.034001 0.12964 0.15664 -0.0076343 -0.19265 -0.045966 0.084775 0.04768 0.02645 0.026717 -0.1175 -0.0072682 0.0068839 -0.012656 -0.069551 -0.18543 -0.03466 0.071303 0.080574 0.12254 0.16646 0.16719 -0.07921 0.03753 0.0092433 0.095243 0.094855 0.094368 0.011284 -0.061981 0.031466 -0.15871 -0.01525 -0.065067 -0.15685 -0.095832 -0.043046 -0.088454 0.057145 -0.040618 -0.035288 -0.025447 -0.17865 0.0896 -0.012522 -0.13872 0.10611 -0.097714 0.16195 -0.10846 0.021049 -0.12051 -6.3212e-05 0.020798 0.12053 -0.051274 0.053882 -0.05968 0.090675 0.092818 -0.078209 -0.041943 -0.057291 -0.032448 0.092585 -0.0031658 0.089778 -0.10761 0.095656 0.06326 0.18369 0.081451 0.097 0.13771 0.054752 -0.13973 -0.15756 0.14576 0.099712 0.17948 0.056931 -0.0084261 0.053647 -0.032051 0.13278 -0.047308 -0.21462 0.097758 0.026219 0.12724 -0.042451 -0.077478 0.12459 0.11265 -0.1579 0.00723 -0.068013 0.19273 -0.057678 -0.20554 -0.016751 0.081464 -0.090013 0.034793 -0.0070312 0.11331 -0.099406 -0.047174 -0.051763 0.077314 0.07432 0.034122 -0.049238 -0.19945 0.04735 0.098078 0.040266 
chicken -0.13352 0.072136 -0.05486 -0.046431 0.07578 0.11226 0.080069 -0.034103 0.046884 0.082871 0.026131 0.14451 0.083413 0.093991 -0.15577 -0.033537 -0.001675 -0.062229 0.044454 -0.043685 0.00097094 0.025681 0.1083 0.14153 -0.033865 -0.059283 0.027146 0.14903 -0.10251 0.072573 -0.033568 0.053002 0.05774 0.10921 -0.0052065 -0.091837 0.1328 -0.06316 0.051665 -0.13889 0.15425 0.052349 0.15205 -0.066102 -0.034663 0.014177 0.076954 0.027951 -0.091949 -0.070575 0.041069 0.21589 -0.037115 0.0066077 -0.04627 0.070943 -0.063292 0.012582 0.030457 0.081179 -0.092266 -0.086714 0.066161 0.096712 -0.13078 -0.045399 -0.016653 0.36996 0.030246 0.13737 -0.20462 -0.15946 -0.0093073 0.0057392 0.074023 0.10566 -0.043133 0.17409 0.16665 -0.13782 -0.11675 0.039253 0.18701 -0.029603 0.029572 0.015537 0.083561 -0.013556 0.094682 -0.031089 -0.030525 -0.049162 0.1398 -0.029916 -0.028657 -0.0075746 0.13605 0.039486 0.13292 0.051653 0.078453 0.031058 0.12621 -0.0046856 0.099161 -0.14504 -0.12166 0.024543 0.056255 0.11051 0.023817 -0.13629 0.017696 0.08887 0.14696 -0.15522 0.10104 -0.048173 -0.2619 0.11072 0.048452 0.18274 0.062205 -0.011022 -0.22576 -0.044948 0.051997 0.096014 0.12881 0.12415 0.030278 -0.19558 -0.061944 -0.17917 -0.10364 -0.023772 -0.10555 -0.0001433 -0.16379 -0.035115 -0.21365 0.10543 0.1567 -0.047916 0.19481 -0.07508 0.067383 -0.058317 -0.081346 -0.093288 -0.069101 0.037435 0.17457 0.25289 -0.1009 -0.10622 -0.30081 -0.022592 0.23143 0.057061 0.058743 -0.040428 -0.021264 0.094499 0.045242 0.11089 0.12536 -0.035303 -0.16609 -0.040736 0.022775 0.12466 0.13613 0.024296 -0.054077 -0.04587 -0.015092 -0.069977 0.15754 -0.014072 -0.19295 -0.29242 0.02861 0.0177 0.12679 0.15454 -0.00050179 -0.18617 -0.0099869 0.076952 0.061986 -0.0024904 0.021773 -0.13928 -0.004107 0.018317 -0.018906 -0.064275 -0.18542 -0.01557 0.059381 0.075888 0.10947 0.16656 0.15311 -0.07705 0.024102 0.014726 0.091855 0.093357 0.10186 0.021763 -0.060273 0.048519 -0.1483 -0.030821 -0.047932 -0.14844 -0.077462 -0.047783 -0.099359 0.049116 -0.047614 -0.036043 -0.035495 -0.17417 0.084876 -0.023806 -0.13186 0.10371 -0.10021 0.15488 -0.10804 0.02099 -0.1268 0.0029147 0.026353 0.13732 -0.047121 0.041494 -0.048171 0.068687 0.089119 -0.075877 -0.043788 -0.057074 -0.029927 0.069913 0.0066699 0.096977 -0.10297 0.098974 0.058803 0.17726 0.066557 0.10475 0.14209 0.070968 -0.12402 -0.14451 0.12817 0.087039 0.17004 0.058437 -0.0090883 0.043352 -0.025755 0.13275 -0.050394 -0.19755 0.094046 0.0016229 0.12893 -0.039967 -0.078997 0.13706 0.095586 -0.17068 0.012057 -0.061748 0.17591 -0.041725 -0.1942 -0.012086 0.099681 -0.075022 0.034822 0.0038299 0.11612 -0.09188 -0.042034 -0.066635 0.076389 0.069054 0.03626 -0.032101 -0.19952 0.043637 0.088827 0.047924 
) -0.12386 0.056068 -0.057696 -0.045653 0.06483 0.094151 0.078537 -0.025634 0.046663 0.070059 0.024647 0.14302 0.067614 0.094468 -0.16721 -0.032174 -0.0042693 -0.068347 0.044898 -0.044192 0.0015398 0.032958 0.10927 0.13683 -0.028435 -0.062019 0.021606 0.14594 -0.10197 0.069772 -0.034204 0.047394 0.050033 0.10501 -0.012025 -0.085964 0.1252 -0.056516 0.046716 -0.14544 0.15073 0.059166 0.14372 -0.058154 -0.034837 0.0095032 0.070723 0.023823 -0.096633 -0.069034 0.038585 0.20978 -0.037874 0.013639 -0.056533 0.071646 -0.053433 0.0096 0.036007 0.081095 -0.091976 -0.080788 0.062961 0.10157 -0.12746 -0.053611 -0.0042283 0.3679 0.017444 0.13984 -0.1916 -0.16159 -0.01872 0.018447 0.080832 0.098811 -0.046744 0.17368 0.16463 -0.13312 -0.11496 0.040732 0.18629 -0.022757 0.032736 0.0047744 0.083568 -0.0087177 0.10096 -0.03361 -0.035225 -0.059857 0.14052 -0.031507 -0.01886 0.0040742 0.13332 0.050669 0.13362 0.050801 0.07436 0.031764 0.12954 0.00028297 0.097968 -0.13768 -0.1191 0.028073 0.052741 0.1198 0.022901 -0.12601 0.012378 0.076744 0.15614 -0.15234 0.094417 -0.055462 -0.26471 0.1178 0.050243 0.18847 0.060962 -0.018447 -0.23286 -0.043224 0.052844 0.096623 0.12844 0.11907 0.037283 -0.19291 -0.070067 -0.18583 -0.10828 -0.02873 -0.10751 0.0085853 -0.16743 -0.039692 -0.22714 0.11159 0.15727 -0.055889 0.19454 -0.083721 0.078352 -0.064026 -0.087451 -0.087564 -0.061062 0.044374 0.17854 0.2516 -0.098675 -0.10099 -0.3006 -0.014627 0.23032 0.064857 0.059245 -0.045799 -0.027541 0.089368 0.049023 0.10842 0.12546 -0.038181 -0.15614 -0.045038 0.026566 0.12428 0.13976 0.023843 -0.050352 -0.042323 -0.010894 -0.070576 0.15692 -0.020633 -0.18531 -0.28123 0.017158 0.015696 0.13044 0.15102 -0.0062021 -0.1928 -0.019865 0.083234 0.066669 0.0028396 0.02216 -0.13504 -0.013508 0.025994 -0.0080838 -0.063093 -0.18485 -0.028214 0.054042 0.07839 0.11324 0.16072 0.15832 -0.076226 0.017418 0.0053745 0.090422 0.096376 0.10166 0.019036 -0.070659 0.04097 -0.13977 -0.03794 -0.04154 -0.15056 -0.077706 -0.060254 -0.094663 0.047318 -0.058763 -0.042764 -0.045102 -0.17675 0.08114 -0.02247 -0.13547 0.11219 -0.089707 0.15104 -0.11621 0.027824 -0.13098 0.005313 0.028245 0.14377 -0.052155 0.043747 -0.053117 0.070788 0.090042 -0.076797 -0.043856 -0.054813 -0.030148 0.055257 0.0096124 0.097167 -0.10185 0.099657 0.053185 0.18581 0.061591 0.11603 0.14385 0.069625 -0.12328 -0.147 0.13676 0.075099 0.17684 0.063729 -0.0019199 0.050754 -0.027783 0.12657 -0.04839 -0.21292 0.089965 -0.003301 0.13356 -0.035003 -0.071008 0.13616 0.10018 -0.16942 0.012964 -0.056436 0.18302 -0.048932 -0.18968 -0.015257 0.095531 -0.075573 0.040253 0.0053522 0.11806 -0.091044 -0.041622 -0.064072 0.083549 0.064853 0.047617 -0.032125 -0.21082 0.045137 0.093085 0.058866 
